%YAML:1.0
my_svm: !!opencv-ml-svm
   svm_type: C_SVC
   kernel: { type:POLY, degree:4., gamma:4., coef0:1. }
   C: 1.
   term_criteria: { epsilon:1.1920928955078125e-07, iterations:1000 }
   var_all: 100
   var_count: 100
   class_count: 10
   class_labels: !!opencv-matrix
      rows: 1
      cols: 10
      dt: i
      data: [ 0, 1, 2, 3, 4, 5, 6, 7, 8, 9 ]
   sv_total: 712
   support_vectors:
      - [ -3.05290437e+00, 3.19289207e+00, 4.02769756e+00,
          -2.12815475e+00, 9.59249496e-01, -1.55702710e+00,
          1.87170699e-01, 3.13193828e-01, -1.17418158e+00,
          -5.24451196e-01, 1.14498055e+00, 4.26635593e-01,
          -2.02611828e+00, -1.16388023e+00, -2.44661951e+00,
          1.61971474e+00, 2.26896062e-01, 1.10558897e-01, 2.93892682e-01,
          9.48751986e-01, 6.37604654e-01, 3.07172441e+00, 2.29881954e+00,
          9.09538209e-01, -1.51460871e-01, 4.41466630e-01,
          1.57311630e+00, 1.11586666e+00, -3.22350711e-01,
          4.63970870e-01, 5.87041974e-01, 7.28932321e-01,
          -1.95555890e+00, -3.85335803e-01, -7.29914427e-01,
          7.83502162e-01, -8.69684815e-02, 2.57212371e-01,
          -1.19973755e+00, 7.90087700e-01, -2.04251871e-01,
          -8.93905044e-01, 7.35804260e-01, -1.14572978e+00,
          -3.76567990e-01, 2.43602201e-01, 7.48135626e-01,
          5.32046497e-01, 4.36026812e-01, 4.21845773e-03, 9.24496174e-01,
          1.53852776e-01, -5.24307013e-01, 4.26651537e-02,
          -3.43530208e-01, -5.84333658e-01, -3.96764725e-01,
          3.87206972e-01, 3.79235178e-01, -3.09869647e-01,
          9.42545235e-01, -3.18425417e-01, -8.87530327e-01,
          1.03827380e-01, -1.21719062e+00, 3.86026561e-01,
          -6.17431626e-02, -1.53425574e-01, 2.10270375e-01,
          1.87441587e-01, 6.11337245e-01, -6.67169929e-01,
          -4.67873216e-01, -4.12376761e-01, -2.24334523e-01,
          3.97232562e-01, 2.58598149e-01, -1.96465462e-01,
          3.02365184e-01, 1.38773158e-01, -7.39088118e-01,
          -4.62804347e-01, -7.82739460e-01, -2.41713390e-01,
          1.23441398e+00, -7.12039649e-01, 2.66642660e-01,
          -2.66598940e-01, 2.84204900e-01, 2.57799447e-01,
          -6.34835005e-01, 7.17905819e-01, 1.78754270e-01,
          -2.30590880e-01, 1.08278491e-01, -1.79392546e-01,
          -7.46535882e-02, -9.77352619e-01, -3.84013593e-01,
          5.04325852e-02 ]
      - [ -3.08365059e+00, 3.97930408e+00, 5.48407984e+00,
          -1.17427862e+00, 1.93294787e+00, -1.59363949e+00,
          3.95291269e-01, -7.41974451e-03, 3.57285261e-01,
          8.46085966e-01, 1.14913285e+00, 7.53385723e-01, 3.55542839e-01,
          -1.44778776e+00, -1.94062734e+00, 1.32805109e+00,
          8.11797023e-01, 3.42259139e-01, 7.57171512e-02, 5.47180951e-01,
          -2.10475519e-01, 2.46766353e+00, 1.00008821e+00,
          1.76852787e+00, -7.93377236e-02, 3.20934832e-01,
          1.30680335e+00, 1.52724338e+00, -1.47775114e-01,
          1.11165687e-01, 6.90565646e-01, 9.85718906e-01,
          -1.34917903e+00, -7.65725255e-01, 4.83709306e-01,
          6.34364069e-01, -7.16894746e-01, -3.31173003e-01,
          -6.23612344e-01, 1.42687410e-01, 1.93274632e-01,
          -1.68183237e-01, 1.25274718e-01, -1.20370829e+00,
          -8.18470895e-01, 6.51703060e-01, 5.15635073e-01,
          -1.80882141e-01, -4.02546138e-01, -4.85904932e-01,
          5.24750829e-01, 4.18598682e-01, -5.42578042e-01,
          -1.30593643e-01, 5.95998093e-02, -2.54091412e-01,
          -6.96070373e-01, 9.09963906e-01, 8.04424047e-01,
          3.29924375e-01, 5.55119962e-02, 1.77325064e-03,
          -2.14432091e-01, -5.17264707e-03, -3.83750170e-01,
          7.01381564e-01, 3.03278536e-01, -8.76530349e-01,
          -8.21729898e-02, 4.57382202e-01, 3.53206962e-01,
          -3.60419244e-01, -5.33538461e-01, -4.22744602e-01,
          -2.63960451e-01, 1.13865502e-01, -1.54453173e-01,
          -5.84788062e-02, -2.32567742e-01, -7.76668429e-01,
          -2.24193901e-01, 2.38997731e-02, -4.55376029e-01,
          2.16719955e-01, 6.69349253e-01, -5.58268785e-01,
          3.17251921e-01, -4.37105805e-01, -3.98030818e-01,
          5.52058101e-01, -5.26118279e-01, 8.26350331e-01,
          -1.64569855e-01, 1.85338527e-01, 2.25161418e-01,
          4.26495373e-01, 5.92905045e-01, -5.10318398e-01,
          -1.11972854e-01, 4.69229937e-01 ]
      - [ -2.46473217e+00, 4.72980595e+00, 4.98765373e+00,
          5.29721737e-01, 2.25376272e+00, -2.91392064e+00,
          1.17828083e+00, -7.22408652e-01, 1.14457242e-01,
          4.46815103e-01, 1.18274045e+00, 1.33053041e+00,
          -1.20113230e+00, -1.09331405e+00, -1.92860484e+00,
          1.83454013e+00, 5.65057039e-01, 7.26976395e-01, 1.14717591e+00,
          3.65349382e-01, -6.97695434e-01, 2.61681581e+00,
          7.53807724e-01, 1.52128041e+00, 2.20941693e-01, 2.12261781e-01,
          2.34889340e+00, 7.56003618e-01, -6.14185929e-01,
          4.08680737e-01, -4.40710336e-01, 4.36367482e-01,
          -4.20776486e-01, 8.39307755e-02, 5.06351531e-01,
          -7.92759180e-01, -9.59198102e-02, 8.57816577e-01,
          -1.23659551e+00, -4.54854161e-01, -3.05709511e-01,
          -2.11218163e-01, -2.18476534e-01, -4.16247636e-01,
          6.32147491e-02, 3.87378633e-01, -7.74341702e-01,
          -1.85953841e-01, 1.59828052e-01, -5.41649222e-01,
          1.46293473e+00, 7.09217966e-01, 1.52495608e-01,
          -7.56655753e-01, -4.10145551e-01, -6.78689107e-02,
          -5.53121030e-01, -2.21454471e-01, 3.77564818e-01,
          5.07028997e-01, -8.39796662e-01, 4.12436157e-01,
          -2.90961117e-01, -8.77967298e-01, -8.68892372e-01,
          -3.28092098e-01, 5.29994786e-01, -2.23451123e-01,
          -3.81356999e-02, 8.51568505e-02, 7.47971386e-02,
          1.75139934e-01, -7.24112272e-01, -7.86456987e-02,
          -3.63665819e-02, -2.33699813e-01, 6.12005055e-01,
          3.36272866e-01, -1.37364700e-01, -4.84895498e-01,
          -1.96331725e-01, 2.25251336e-02, 4.15850841e-02,
          7.54866600e-01, -9.83867049e-02, -1.60546705e-01,
          -5.33211790e-02, -2.54448466e-02, -1.40479594e-01,
          6.23610973e-01, -3.65867585e-01, 2.75713772e-01,
          -9.19958204e-03, 1.98220119e-01, 1.55997977e-01,
          -4.92553651e-01, 4.54041474e-02, -4.37036037e-01,
          1.99789274e-02, 2.21935362e-01 ]
      - [ -1.45140016e+00, 4.64500523e+00, 5.65477800e+00,
          1.66560337e-01, 1.82555437e+00, -2.48906946e+00,
          5.52043915e-01, -6.41210675e-01, 4.02564645e-01,
          1.71278751e+00, 1.03408575e+00, 1.55407155e+00,
          -1.42010891e+00, -1.97649932e+00, -1.29995453e+00,
          1.97479272e+00, 7.87604868e-01, -9.11608785e-02,
          1.28792596e+00, 2.95198083e-01, -1.38083351e+00,
          3.12998390e+00, 1.76527309e+00, 5.35613000e-01,
          -9.62675810e-01, -5.90627730e-01, 2.31842136e+00,
          2.27541614e+00, -7.63217986e-01, 8.93297017e-01,
          8.73280823e-01, -3.27916235e-01, 5.22103786e-01,
          -4.29238677e-02, 1.14230072e+00, -2.48497099e-01,
          -8.44336927e-01, -5.29415309e-01, -5.56084454e-01,
          -9.90150928e-01, -6.41044915e-01, -1.86345160e-01,
          4.13012296e-01, 8.11621428e-01, 1.62951928e-02, 1.65108636e-01,
          -2.52102405e-01, 2.92845130e-01, -2.59046286e-01,
          -1.42537153e+00, 6.65890217e-01, 8.07996869e-01,
          6.74174190e-01, -1.55913532e-01, 6.35825634e-01,
          9.82658207e-01, -2.96166092e-01, 4.33026403e-01,
          -7.02085271e-02, 4.02069360e-01, -5.30216277e-01,
          7.47402370e-01, -1.35800382e-02, -6.86443567e-01,
          1.01736791e-01, 2.28163376e-01, -1.33084998e-01,
          -2.86188692e-01, -7.43700683e-01, 9.39988419e-02,
          1.04892865e-01, 1.67710826e-01, -3.01786929e-01,
          3.45139176e-01, 4.24246252e-01, -5.26941344e-02,
          -3.06683898e-01, 2.35653803e-01, -6.36816621e-01,
          -6.41459644e-01, -6.58944696e-02, 2.14451864e-01,
          -3.68533023e-02, -1.34583816e-01, 4.87952143e-01,
          -3.21954757e-01, -2.68765420e-01, 5.15028358e-01,
          8.20636511e-01, 4.00148213e-01, 1.81568712e-01,
          -1.73715889e-01, -4.74452674e-01, 8.06866527e-01,
          -2.43681371e-02, 2.26385683e-01, -2.53489278e-02,
          1.81101352e-01, 2.61947453e-01, 3.63687903e-01 ]
      - [ -1.20790005e+00, 4.88298893e+00, 4.23664761e+00,
          1.40472150e+00, 1.24099386e+00, -1.75687134e+00,
          1.86436450e+00, 1.18963945e+00, -1.44775316e-01,
          -4.14022326e-01, 2.84533310e+00, -4.52637672e-01,
          -1.00901902e+00, -1.32414615e+00, -1.25969958e+00,
          1.57387555e+00, -1.41798586e-01, 1.32415700e+00,
          -4.21920754e-02, 3.86260450e-01, -7.94541314e-02,
          2.04378247e+00, -2.24653646e-01, 1.92393315e+00,
          8.35918427e-01, 2.42093936e-01, 1.60178864e+00, 1.60556257e+00,
          6.67398870e-02, 1.00481105e+00, -4.92643148e-01,
          3.56287993e-02, -7.59709716e-01, 3.89014870e-01,
          -3.60447407e-01, -2.21947908e-01, -1.11937511e+00,
          4.93890703e-01, -8.45484316e-01, 3.71840179e-01,
          2.02843845e-01, 8.09537023e-02, -6.67578816e-01,
          1.24397635e+00, -7.77909517e-01, -2.94326216e-01,
          9.55684006e-01, 1.01008046e+00, 1.80924490e-01, 3.37395698e-01,
          -5.08401036e-01, 7.59579599e-01, 6.08938098e-01,
          -1.27826476e+00, 4.99472141e-01, 2.57722706e-01,
          -3.22027743e-01, 6.18630290e-01, -4.98806685e-01,
          9.51909304e-01, 1.21146768e-01, -5.45189738e-01,
          -9.00982395e-02, 3.98814499e-01, -3.64723027e-01,
          6.83033049e-01, 8.02654997e-02, -1.87329352e-01,
          7.88964212e-01, 4.33405749e-02, 5.04384279e-01,
          -5.52782677e-02, 6.69184208e-01, -5.17416894e-01,
          3.98460366e-02, -6.67411089e-01, -4.44738060e-01,
          -2.89183587e-01, -5.57828426e-01, 5.97226806e-03,
          -1.79480940e-01, 6.13299370e-01, 1.61968749e-02,
          -4.59890991e-01, -4.24803346e-01, 5.64254582e-01,
          -1.80356875e-01, -5.40484011e-01, 4.33537401e-02,
          1.21374913e-01, 6.42774627e-03, -5.86070597e-01,
          -5.42017072e-02, -2.81389922e-01, -3.20548892e-01,
          -5.97666129e-02, 7.64111936e-01, 3.96558493e-01,
          8.01516548e-02, -9.35061052e-02 ]
      - [ -1.08606374e+00, 4.79018307e+00, 4.36263514e+00,
          1.64181769e+00, 1.00736105e+00, -1.89274144e+00,
          1.85983360e+00, 1.07661712e+00, 1.90193832e-01,
          -1.11747488e-01, 3.11379123e+00, -4.38017137e-02,
          -1.15261114e+00, -1.04173303e+00, -1.11366260e+00,
          1.62594593e+00, -3.67554963e-01, 1.47094405e+00,
          3.46974373e-01, 5.04661858e-01, -2.43723765e-01,
          2.23887467e+00, -2.00333446e-01, 1.36818242e+00,
          8.73629510e-01, 4.50329214e-01, 1.45436120e+00, 1.20269489e+00,
          -3.30261409e-01, 7.79241741e-01, -5.72320223e-01,
          3.31303656e-01, -3.98925483e-01, 1.06163032e-01,
          -5.46989202e-01, -5.32586157e-01, -1.41640878e+00,
          5.48103154e-01, -6.70254409e-01, 1.01170194e+00,
          3.65122497e-01, 3.01199913e-01, -1.32673907e+00,
          4.20714378e-01, -9.28581774e-01, -1.67540371e-01,
          3.57261747e-01, 4.31950569e-01, 2.10978612e-01, 7.81607866e-01,
          -1.20481409e-01, 7.71335483e-01, 9.26414371e-01,
          -1.38933480e+00, 2.54716009e-01, 1.68090090e-01,
          -1.22140586e-01, 4.59017456e-01, -8.35622966e-01,
          7.30352938e-01, 4.35724884e-01, -5.93871236e-01,
          -2.88462758e-01, 5.90408742e-01, -5.28439522e-01,
          5.39012372e-01, -2.47542545e-01, -1.05924934e-01,
          8.70095551e-01, 1.36107072e-01, 4.35896546e-01, 2.13912725e-02,
          4.65619832e-01, -8.90223205e-01, 3.72853220e-01,
          -8.54880154e-01, -4.27315682e-01, 1.38562500e-01,
          -3.89480174e-01, -1.60184205e-01, 8.39726403e-02,
          8.10449362e-01, 2.37794593e-01, -3.38923901e-01,
          -6.61504567e-01, 4.73989308e-01, -2.29650646e-01,
          -5.21002769e-01, -2.50844866e-01, 1.55218482e-01,
          3.63427144e-03, -6.31900609e-01, -2.17614584e-02,
          -2.54597217e-01, -3.36042434e-01, 5.66595905e-02,
          9.51903224e-01, 1.91878155e-01, -2.19479024e-01,
          -3.85708846e-02 ]
      - [ -1.32594109e+00, 4.26361561e+00, 4.89641666e+00,
          3.15080571e+00, 1.41978109e+00, -1.69750392e+00,
          1.18184423e+00, 1.06695986e+00, -3.91175181e-01,
          -1.36770272e+00, 2.70739675e+00, 1.06245570e-01,
          -2.61446714e-01, -4.54130650e-01, -1.28692460e+00,
          1.62781906e+00, -1.52674332e-01, 1.16752374e+00,
          2.04747334e-01, 3.01620960e-01, -4.52159971e-01,
          2.79202628e+00, -2.34220594e-01, 8.09829533e-01,
          4.24139977e-01, 3.66391897e-01, 1.58683085e+00, 1.40486920e+00,
          -8.16670656e-01, 6.18953228e-01, -1.67961657e+00,
          1.23487890e-01, -6.56213045e-01, -5.14799893e-01,
          -6.76217616e-01, -1.27913463e+00, -6.01174772e-01,
          3.32641900e-01, -2.85572737e-01, 8.59759450e-01,
          4.92029548e-01, 5.92795670e-01, -1.57443845e+00,
          -9.75011569e-03, -7.98922658e-01, -4.94138509e-01,
          -4.10015911e-01, -9.12199616e-02, 2.61510998e-01,
          7.98757792e-01, -7.95430362e-01, 1.20369710e-01,
          -2.61121541e-01, -9.23528135e-01, 1.53088812e-02,
          3.09769008e-02, 2.23438486e-01, 7.81489491e-01,
          -9.18293476e-01, 2.53658593e-01, 7.71741748e-01,
          -5.74629247e-01, -1.51094407e-01, 3.38559657e-01,
          2.88172752e-01, -1.03646349e-02, -8.85820314e-02,
          2.81433821e-01, -2.40623325e-01, 8.18857402e-02,
          -1.14137441e-01, -3.49388681e-02, 7.56097538e-03,
          -2.06227973e-01, 3.22835416e-01, -2.44135693e-01,
          -3.27075869e-01, 4.49883819e-01, 7.23720729e-01,
          -1.54593319e-01, 4.03150737e-01, 1.41464055e-01,
          -1.47413611e-01, -6.78645790e-01, -6.80426419e-01,
          2.56002516e-01, -1.67364955e-01, -5.04491389e-01,
          -5.34120560e-01, 2.67335147e-01, -4.78742987e-01,
          5.38325645e-02, -2.45068491e-01, -5.33631206e-01,
          -3.91913205e-01, -1.69132069e-01, 3.53836775e-01,
          -3.86929065e-01, -4.42058265e-01, 1.06075846e-01 ]
      - [ -2.84090853e+00, 4.97257090e+00, 4.33668041e+00,
          2.06233644e+00, -3.05800345e-02, -1.35975540e+00,
          9.08347785e-01, 1.09550500e+00, -3.18147272e-01,
          -1.28907311e+00, 2.37382793e+00, -3.37343097e-01,
          4.87293273e-01, 1.66883752e-01, -1.14502060e+00,
          1.97324562e+00, -1.06141257e+00, 1.23988628e+00,
          -8.97161841e-01, 1.06966801e-01, 7.02984393e-01,
          2.47272158e+00, -2.76769817e-01, 1.38767099e+00,
          -8.48881155e-02, 2.08534718e-01, 5.10628343e-01,
          1.05913031e+00, 1.25542864e-01, 9.20516968e-01,
          -7.79655695e-01, 1.43025860e-01, -6.94362283e-01,
          5.47604561e-01, -5.91253102e-01, -4.58364964e-01,
          3.03834043e-02, 4.41382766e-01, -9.13620472e-01,
          9.09597754e-01, 2.53684968e-01, -1.53532997e-01,
          -6.85705721e-01, 7.90263832e-01, -3.40994686e-01,
          -4.50627387e-01, 7.16010988e-01, 6.10346437e-01,
          -5.31686783e-01, 1.41709948e+00, -1.48150945e+00,
          1.17312804e-01, -4.29098099e-01, -8.84748936e-01,
          -4.15562063e-01, -2.89268106e-01, -3.95554662e-01,
          -1.03747472e-01, -1.99631497e-01, -9.15505588e-02,
          2.07348108e-01, -3.43504012e-01, -2.79933959e-01,
          -2.18055770e-01, 4.91953269e-02, 7.85856962e-01,
          2.33788729e-01, -1.08769029e-01, 3.18378925e-01,
          -6.05070472e-01, 7.97510222e-02, 7.11478889e-02,
          6.87702298e-01, -3.27422589e-01, -8.36101994e-02,
          8.00537169e-01, -1.33158147e-01, 2.44153678e-01,
          -3.43713522e-01, 1.09943286e-01, 2.19041765e-01,
          -4.16151673e-01, -2.45842725e-01, 5.62786050e-02,
          5.06878078e-01, -4.01740760e-01, -5.18763810e-02,
          5.41424572e-01, 2.75853276e-01, -5.64178348e-01,
          1.85824230e-01, -3.56556982e-01, 4.18966711e-01,
          -7.33467817e-01, -4.14825708e-01, -9.60986093e-02,
          1.33049607e-01, -2.35198274e-01, -4.80355501e-01,
          -3.77275079e-01 ]
      - [ 7.55418420e-01, 3.85544300e+00, 5.07865000e+00, 4.68672371e+00,
          1.16850698e+00, -2.47876763e+00, 8.69876683e-01,
          1.81412709e+00, 1.58957139e-01, -9.03946161e-01,
          3.23543239e+00, 2.79745441e-02, -6.94507241e-01,
          -1.01668298e+00, -6.26357138e-01, 1.32934761e+00,
          7.13484228e-01, -2.17844695e-01, 1.29274964e+00,
          -5.07349014e-01, -1.62017417e+00, 2.10582685e+00,
          1.95886433e-01, 2.60203257e-02, 8.51802528e-01,
          -1.26463830e-01, 1.43627632e+00, 8.60499501e-01,
          -1.20355713e+00, 5.38276732e-01, -1.95280552e+00,
          -2.07588494e-01, 3.51079822e-01, -6.40015066e-01,
          -8.21591616e-01, -3.68827164e-01, -8.49664927e-01,
          -9.40332934e-02, 2.82480508e-01, -3.91416430e-01,
          -3.08397502e-01, 1.47567332e-01, -7.54265547e-01,
          -3.87811899e-01, 2.14774698e-01, -3.26461256e-01,
          -3.34106892e-01, -7.58553028e-01, 6.39617383e-01,
          5.55640906e-02, 7.15914369e-01, -6.64559126e-01,
          6.68771505e-01, 2.03000102e-03, -1.23939730e-01,
          -1.59638509e-01, 3.86219263e-01, 1.41242668e-01,
          -4.09252733e-01, 2.12460667e-01, 2.37179577e-01,
          9.47906151e-02, -5.16301990e-01, 3.61458749e-01,
          3.73760641e-01, -8.03257883e-01, -3.25587451e-01,
          8.66719961e-01, -4.99719381e-01, -1.90025866e-01,
          1.00353949e-01, 6.90994203e-01, 2.36502185e-01, 7.13628471e-01,
          -2.12838605e-01, -7.33220935e-01, -1.15745803e-02,
          5.02614379e-01, -2.32388392e-01, 3.21897209e-01,
          -3.15126389e-01, -1.23109855e-01, 1.32831652e-02,
          5.18299818e-01, 4.16898690e-02, -6.11601165e-03,
          4.69605148e-01, -3.54390681e-01, 4.40994412e-01,
          3.48313540e-01, 3.22683662e-01, 1.60083279e-01, 3.00438970e-01,
          7.25288242e-02, -2.01989755e-01, 1.51223928e-01,
          -7.53280818e-01, 8.45955968e-01, 2.33838975e-01,
          -3.05364281e-01 ]
      - [ 6.29190385e-01, 4.35568428e+00, 4.00683784e+00, 5.43876219e+00,
          6.51769340e-01, -2.68601704e+00, 1.48122895e+00,
          4.85162020e-01, 4.60338295e-01, -1.59336889e+00,
          3.45283079e+00, -2.23812416e-01, -1.48492134e+00,
          -8.07415128e-01, -5.37810624e-01, 1.32366657e+00,
          4.49487597e-01, 1.31145883e+00, 1.03450596e+00,
          -6.31068230e-01, -1.17289639e+00, 2.15031958e+00,
          -1.43086717e-01, -2.76391089e-01, 5.94102681e-01,
          -3.04598868e-01, 8.36668134e-01, 7.84650505e-01,
          -4.07512039e-01, 1.05452156e+00, -1.62269533e+00,
          -4.09593284e-01, 6.71306133e-01, -4.48433965e-01,
          -4.81084585e-02, -7.98534453e-01, -4.68391627e-01,
          -3.74943882e-01, 3.25946867e-01, -3.40115279e-02,
          3.11960608e-01, 4.19026501e-02, 1.67038709e-01, 2.21409574e-01,
          9.22385275e-01, -3.20013195e-01, 9.19264853e-01,
          -5.70304990e-01, 2.84225494e-01, -6.29791260e-01,
          -1.37183994e-01, 3.75652835e-02, 5.96321523e-01,
          4.80722561e-02, -5.34654856e-02, 7.75352716e-02,
          2.10916132e-01, -3.13989222e-01, -2.63116479e-01,
          -2.55841047e-01, 6.70358181e-01, 2.28451997e-01,
          2.80475259e-01, 1.88409790e-01, 4.23522532e-01, 9.64367688e-02,
          -2.97027677e-01, 6.78979158e-01, -2.79912472e-01,
          5.79650223e-01, 3.92623782e-01, 3.46106887e-01, 7.05039203e-01,
          4.97942001e-01, -2.92231947e-01, -5.64207137e-01,
          -1.73212364e-01, 4.48799044e-01, 8.12147334e-02,
          1.63290337e-01, -3.10873866e-01, -3.97162646e-01,
          4.81425941e-01, 3.61392021e-01, -1.60689488e-01,
          7.07121134e-01, 2.92170316e-01, 3.70234340e-01, 5.37954390e-01,
          5.60038269e-01, 3.45297098e-01, 4.73306865e-01, 1.07411158e+00,
          2.51787692e-01, -4.25926059e-01, -4.70946729e-01,
          -4.56237227e-01, 1.58592805e-01, 5.09524107e-01,
          -7.56955966e-02 ]
      - [ 1.98022830e+00, 2.24683499e+00, 4.06648397e+00, 5.20140219e+00,
          3.33080679e-01, -2.40500712e+00, 8.57691944e-01,
          2.47856688e+00, 7.36235082e-01, -1.11188030e+00,
          4.53719473e+00, -1.16638482e+00, -1.08093762e+00,
          -3.08031887e-01, -1.66353655e+00, 5.94395585e-02,
          2.07947224e-01, -5.83933115e-01, 2.08412446e-02,
          -1.18861683e-01, -8.18205416e-01, 1.06649899e+00,
          2.15166047e-01, 6.57575190e-01, 3.70617807e-01, 4.58356231e-01,
          -1.16996095e-01, 1.31882811e+00, -1.61878809e-01,
          3.99311662e-01, -7.27665484e-01, 3.18812609e-01,
          -1.88016391e-03, -1.44090593e+00, -2.68901616e-01,
          1.54642820e+00, 2.18883142e-01, -5.80290020e-01,
          2.85173506e-01, -4.94694799e-01, -7.02015817e-01,
          -2.94430237e-02, -9.49240103e-02, -4.75786626e-01,
          -4.32355218e-02, 2.18492433e-01, 1.07123375e+00,
          1.13889694e-01, 3.69484186e-01, 8.68042484e-02,
          -3.96322966e-01, 1.69449925e-01, 6.52935579e-02,
          1.25670016e-01, 6.13777675e-02, 5.28992772e-01, 9.79531109e-01,
          1.53199196e-01, 3.20231259e-01, 7.76849568e-01,
          -4.10672605e-01, -8.71410251e-01, 1.03254223e+00,
          1.21625650e+00, 4.34251547e-01, -1.85337082e-01,
          -4.86429095e-01, -1.54420987e-01, 6.86800718e-01,
          -4.33258832e-01, 5.34576535e-01, 9.28918123e-02,
          -1.44249126e-01, -7.34142065e-01, -1.77963242e-01,
          4.55728382e-01, -3.30353737e-01, 7.79630780e-01,
          3.08248907e-01, -3.05724949e-01, 1.85019299e-01,
          3.53419743e-02, 3.80950630e-01, -4.17445660e-01,
          -5.55340886e-01, 2.80248672e-01, -3.57325077e-02,
          2.60433722e-02, 3.48692178e-03, 1.69919968e-01, 6.88455552e-02,
          1.74097400e-02, -9.91973057e-02, -4.28747118e-01,
          3.09989125e-01, -5.86873554e-02, 2.80117840e-02,
          3.65319550e-01, -3.42435211e-01, 1.69252977e-01 ]
      - [ 4.05247259e+00, 2.08739090e+00, 3.32723761e+00, 6.90381527e+00,
          -7.18732715e-01, -3.67464662e+00, 2.76493263e+00,
          -7.62879010e-03, -4.18871231e-02, -1.40291440e+00,
          3.02353811e+00, -5.36718905e-01, -1.30373585e+00,
          -6.04724765e-01, 5.89814544e-01, -6.82936370e-01,
          1.21215200e+00, 3.40435117e-01, 1.67215765e-01,
          -1.42355299e+00, -3.89740169e-01, 2.67422888e-02,
          5.39013803e-01, -3.29710543e-01, 6.01353824e-01,
          2.60096282e-01, 1.08011830e+00, 1.58993959e-01, 8.57553557e-02,
          1.10453881e-01, 4.66710061e-01, 7.40049407e-02, 7.14429557e-01,
          4.75691080e-01, 6.41579986e-01, 3.08487236e-01, 6.29554391e-01,
          -3.62174958e-01, 4.73665237e-01, -3.64378661e-01,
          -4.58024800e-01, -6.97859645e-01, 5.95341086e-01,
          6.22716308e-01, 2.84270436e-01, 1.00415194e+00,
          -1.72554776e-01, -8.48589242e-01, -1.27715921e+00,
          -2.43332803e-01, 1.28379427e-02, 5.41415475e-02,
          1.05878398e-01, 3.79061513e-02, 3.14936727e-01, 4.86502081e-01,
          4.26071495e-01, 1.32250980e-01, -2.28890851e-01,
          -5.00419021e-01, 2.97694296e-01, 9.74699795e-01,
          -1.54205978e-01, 6.68750554e-02, 3.66336517e-02,
          -5.84816337e-01, 2.33025588e-02, 7.75686726e-02,
          3.67244184e-01, 1.05749667e-01, 1.42321467e-01, 4.75586653e-01,
          6.31129384e-01, 1.08690813e-01, -6.04877114e-01,
          4.59860116e-02, -7.55639911e-01, -2.30013072e-01,
          9.15002227e-02, -2.07429938e-02, 1.04031377e-01,
          -9.05556902e-02, -9.25497115e-01, 3.11175585e-01,
          -7.10319221e-01, -4.61233348e-01, 5.06174803e-01,
          -2.98174590e-01, 2.21964061e-01, 3.42192769e-01,
          -3.65739822e-01, 5.12529969e-01, -5.31572104e-01,
          -8.34686339e-01, -1.51997164e-01, 6.21709347e-01,
          -6.54694508e-04, -2.59780943e-01, 6.85145736e-01,
          -1.80796042e-01 ]
      - [ 8.29319763e+00, 3.58053398e+00, 2.66046524e+00, 3.10639930e+00,
          8.74152482e-01, -3.82283640e+00, 2.75143933e+00,
          3.37940812e+00, -5.22919774e-01, -1.04691648e+00,
          5.12937725e-01, 1.08858339e-01, 7.05682099e-01,
          -2.23222479e-01, -8.15451980e-01, -1.02258444e+00,
          -2.26118708e+00, 1.50602937e+00, -1.56668413e+00,
          5.32361157e-02, -2.32391227e-02, 5.95131755e-01,
          -3.78627330e-01, 5.66220224e-01, 1.60547830e-02,
          -2.71175534e-01, -8.06338251e-01, -9.16086286e-02,
          -1.99963406e-01, 9.60532054e-02, -1.04731488e+00,
          4.11099404e-01, 4.60140437e-01, -7.48495996e-01,
          -3.53925973e-01, 7.99324691e-01, -9.65979025e-02,
          -2.30343163e-01, -3.43374349e-02, -5.37567914e-01,
          9.62381586e-02, 7.23145068e-01, 1.53841466e-01, 3.21636409e-01,
          -1.28084095e-03, 6.48745537e-01, 7.05667853e-01,
          1.26871541e-01, -1.89823925e-01, 5.45254886e-01,
          -4.47262943e-01, -1.98675066e-01, -1.98774785e-01,
          -1.32139072e-01, 1.57345012e-01, 1.59466953e-03,
          6.01055443e-01, -3.12948704e-01, -3.44750106e-01,
          -4.12409812e-01, 2.81888932e-01, -7.48252630e-01,
          6.81892216e-01, 6.79478049e-01, -6.78975433e-02,
          1.46157652e-01, -4.26715374e-01, 3.06435317e-01,
          5.12717009e-01, 1.03920162e+00, 2.44372472e-01,
          -3.84345412e-01, 2.93064445e-01, -8.92604291e-01,
          2.10698351e-01, 2.18281951e-02, 6.28037229e-02,
          -1.75998181e-01, -1.18163928e-01, -6.53528750e-01,
          -7.53968284e-02, 6.73327923e-01, -6.05247676e-01,
          3.15889776e-01, -8.32429808e-03, -4.56165493e-01,
          6.11087680e-01, -2.91421860e-01, -3.46689731e-01,
          4.41398382e-01, 6.00679874e-01, 4.64680284e-01, 2.07049862e-01,
          -3.40882316e-02, 2.58001953e-01, 6.72422349e-01,
          1.03552621e-02, 1.46737561e-01, 2.56657284e-02,
          -5.47431633e-02 ]
      - [ 7.03528118e+00, 4.15367699e+00, 6.55357695e+00, 3.74449134e+00,
          9.38099205e-01, -2.91953397e+00, 1.92678690e+00,
          2.33734679e+00, 1.34498447e-01, 1.59502673e+00,
          -2.43393612e+00, -1.26944685e+00, 6.42076015e-01,
          -1.12122464e+00, 1.35333931e+00, -8.65091264e-01,
          -7.39172995e-01, -1.16571319e+00, 7.66227245e-01,
          -1.29093397e+00, -1.77316427e-01, 3.28433126e-01,
          7.91789770e-01, 3.59594733e-01, -1.35388589e-02,
          -8.45101699e-02, 5.31170487e-01, -8.73966515e-01,
          -4.06288028e-01, -5.57689182e-02, -6.41487181e-01,
          -9.03320909e-01, 9.89937484e-01, 5.54306693e-02,
          -1.67385072e-01, 4.42577332e-01, -6.19536221e-01,
          -4.88619089e-01, -8.63562167e-01, -5.26919603e-01,
          -9.56675857e-02, -5.29251695e-01, 2.48637006e-01,
          6.75965190e-01, -5.25956824e-02, -1.40908062e-02,
          1.07087660e+00, -3.73889059e-01, -1.19606249e-01,
          1.38879323e+00, 3.11073959e-01, -6.76428497e-01,
          5.51316857e-01, 5.66198409e-01, 3.60341042e-01,
          -6.68302178e-01, -3.16707253e-01, -5.99722564e-01,
          4.97566849e-01, -1.46375820e-01, -2.37804815e-01,
          -7.54508257e-01, 3.19315016e-01, 8.36385116e-02,
          -4.88754660e-01, 1.53894633e-01, 4.67382193e-01,
          3.44834566e-01, -2.59865642e-01, 5.95066130e-01,
          1.62539870e-01, 1.89537719e-01, -3.81603599e-01,
          4.27432746e-01, 7.24083111e-02, -4.18645665e-02,
          -2.27895394e-01, 2.12464586e-01, 2.34203890e-01,
          -2.37131849e-01, 1.75725132e-01, -3.00758667e-02,
          8.27559948e-01, 4.59851652e-01, -4.82676417e-01,
          -9.50536311e-01, 1.71349019e-01, -4.23238605e-01,
          -6.72900230e-02, 3.66733700e-01, 1.41375124e-01,
          9.84465480e-02, 2.41586015e-01, -5.89940608e-01,
          1.92839503e-01, 4.28232163e-01, 4.69487280e-01, 4.26424183e-02,
          -5.85670352e-01, 4.95094121e-01 ]
      - [ 4.36981821e+00, 1.19155669e+00, 2.39161563e+00, 7.04163980e+00,
          -1.50126338e-01, -3.41578913e+00, 2.66150594e+00,
          1.04691994e+00, 2.40261301e-01, -1.35280120e+00,
          3.15534902e+00, 3.84119600e-01, -1.10360157e+00,
          -1.16454637e+00, 1.70917153e-01, -9.29701030e-01,
          4.17121947e-01, -1.20774770e+00, 4.80180532e-02,
          -1.22962880e+00, -4.80416328e-01, -3.42435449e-01,
          5.54406583e-01, -3.33004653e-01, 3.26484263e-01,
          6.51248455e-01, 6.33959353e-01, 6.70312764e-03, 6.13997400e-01,
          -6.51182711e-01, 1.46004999e+00, -2.52849590e-02,
          2.47890219e-01, 1.35496452e-01, 1.43221283e+00, 7.76497781e-01,
          5.30480206e-01, -3.01315039e-01, -3.53526413e-01,
          4.94950891e-01, -1.19238698e+00, 2.94935834e-02,
          6.64744556e-01, 1.47745919e+00, 1.75226480e-01, 8.56348932e-01,
          8.22053328e-02, -9.21402335e-01, -1.31075156e+00,
          -8.83130282e-02, 3.70032698e-01, 2.06103891e-01,
          4.98234898e-01, -6.45641804e-01, 7.27126539e-01,
          2.06332609e-01, 4.34353322e-01, -1.04056492e-01,
          6.78261789e-03, -4.50812697e-01, 9.36787650e-02,
          5.40156543e-01, -5.62709391e-01, 1.09654613e-01,
          -1.52311966e-01, 3.10806543e-01, -6.40359461e-01,
          -4.34252888e-01, 4.02995199e-01, -1.77503958e-01,
          -4.26468194e-01, 2.57852435e-01, 2.08979130e-01,
          -4.81976658e-01, -2.42641315e-01, -2.35829905e-01,
          4.49258000e-01, -4.13846880e-01, -1.31941423e-01,
          -2.53356099e-01, -1.65154099e-01, 2.17214346e-01,
          -4.37343627e-01, 4.57550995e-02, -4.52300236e-02,
          1.07552826e-01, 1.52642190e-01, 1.07424445e-01,
          -3.46824646e-01, 6.44245684e-01, -3.27049226e-01,
          -2.01552864e-02, 6.72768950e-01, -5.20958304e-01,
          -2.18397021e-01, -7.78110147e-01, 2.72960961e-01,
          4.37496156e-01, 4.30173695e-01, -3.46353114e-01 ]
      - [ 5.57316732e+00, 2.57761836e-01, 2.38028717e+00, 4.87292862e+00,
          1.93340981e+00, -4.42649555e+00, 2.98668671e+00,
          1.86484814e+00, 1.29898560e+00, -3.22087079e-01,
          -2.12627828e-01, -1.26827109e+00, -6.94846630e-01,
          9.46083188e-01, -3.29918981e-01, 1.30155516e+00,
          1.57968068e+00, -1.61703527e+00, 9.07845020e-01,
          1.04582047e+00, -3.71421146e+00, -1.74239719e+00,
          9.57396746e-01, -3.40036690e-01, 5.37159503e-01,
          9.93679821e-01, 1.49205220e+00, -4.96869504e-01,
          2.49057317e+00, -1.74112451e+00, -1.91145822e-01,
          -2.82834888e-01, -1.27985537e-01, 1.90211400e-01,
          1.80533564e+00, 3.08327079e-01, 1.18809116e+00,
          -5.31157851e-01, -6.87789142e-01, 2.32858434e-01,
          -1.23848379e+00, -8.95544708e-01, -1.20722905e-01,
          1.46917367e+00, -3.03195685e-01, 9.63864326e-02,
          5.87434173e-01, 3.67089212e-01, -9.98371542e-01,
          -4.42361742e-01, 5.25032640e-01, 3.21568489e-01,
          2.28443608e-01, -1.38729468e-01, -7.83277810e-01,
          7.72476673e-01, -1.80291921e-01, 1.46393180e+00,
          9.11314130e-01, -6.23159707e-01, 1.48782802e+00,
          -6.95662379e-01, 4.25883353e-01, -9.23401833e-01,
          3.01984370e-01, 5.18045425e-02, 3.64703894e-01, 7.32256532e-01,
          1.73252467e-02, -7.49933898e-01, 1.62465453e-01,
          4.63444829e-01, -5.76428611e-05, 1.39941305e-01,
          -9.71966684e-01, 3.39748114e-01, -2.77596563e-01,
          -2.51263976e-01, -4.72539961e-01, -8.98885354e-02,
          1.07707255e-01, -4.33346331e-01, 4.01122749e-01,
          1.27127737e-01, -7.53053963e-01, -6.73237681e-01,
          3.85744795e-02, -5.91220796e-01, -7.00695276e-01,
          -5.47572076e-01, 4.49136108e-01, 2.61536896e-01,
          -6.05752289e-01, 4.41494256e-01, 5.97525120e-01,
          -2.39052922e-01, 6.69098556e-01, -4.62800637e-02,
          -2.40484878e-01, 5.38095295e-01 ]
      - [ 4.77476978e+00, 1.20788634e+00, 1.84634221e+00, 6.57292366e+00,
          -7.33377278e-01, -3.32633948e+00, 2.89235950e+00,
          1.14453542e+00, -5.01731858e-02, -7.90859997e-01,
          3.43461967e+00, 7.06335157e-02, -6.37509525e-01,
          -8.45280409e-01, 4.33503151e-01, -1.25332010e+00,
          -1.86412081e-01, -4.15155351e-01, -4.84891802e-01,
          -8.02192509e-01, 3.98988694e-01, -9.26621139e-01,
          7.96507537e-01, -2.96263784e-01, 2.13152364e-01,
          5.20251691e-01, 6.85478032e-01, -1.22264877e-01,
          1.18889284e+00, -5.50455689e-01, 1.74102032e+00,
          2.83097953e-01, 4.50035989e-01, 4.75428998e-01, 1.21880233e+00,
          7.00015604e-01, 5.70771396e-01, -2.02474102e-01,
          -7.11031675e-01, 4.92607474e-01, -1.44108391e+00,
          -2.73065388e-01, -1.51884019e-01, 1.05544579e+00,
          4.31609541e-01, 7.97412455e-01, 9.86315310e-02,
          -5.34670413e-01, -1.35990393e+00, 7.40444124e-01,
          -2.34511122e-01, -8.25040162e-01, -5.11795163e-01,
          -5.17569661e-01, 7.10932314e-01, 2.16505572e-01,
          -2.26608858e-01, 6.88369215e-01, 2.70818084e-01,
          -5.24604358e-02, 2.91949034e-01, 3.52326602e-01,
          -4.83349442e-01, 2.89322995e-02, -6.42243922e-01,
          1.32766291e-01, -4.30092901e-01, -8.16690624e-01,
          -1.65850461e-01, -2.87422240e-01, -1.88104808e-01,
          4.36037719e-01, 1.78734902e-02, 2.58532260e-02, 2.29966100e-02,
          -5.05860329e-01, 1.08323920e+00, -4.26906317e-01,
          -1.66880816e-01, 3.01402509e-01, 2.15263426e-01,
          -3.44104528e-01, 2.23179348e-02, 2.14025810e-01,
          -2.96470553e-01, 4.22441006e-01, 2.69666910e-01,
          -2.90345728e-01, -5.09443879e-01, 6.31675720e-01,
          -2.32081845e-01, 2.29691297e-01, -1.60426006e-01,
          -4.69892889e-01, 3.94625187e-01, -3.52410078e-01,
          3.23072745e-04, 5.48857450e-01, -1.51568756e-01,
          -3.00649494e-01 ]
      - [ 7.26172018e+00, 4.16687727e+00, 7.06591320e+00, 3.35897708e+00,
          9.34158802e-01, -1.57753205e+00, 1.59679997e+00,
          1.81932747e+00, -3.23636830e-01, 2.78461003e+00,
          -2.72370195e+00, -2.51671886e+00, 4.01882827e-01,
          4.25067842e-01, 1.92928743e+00, -9.07171965e-01,
          -3.04494768e-01, -2.09358215e+00, 1.01472664e+00,
          -1.76404858e+00, 5.68815410e-01, -1.43417001e-01,
          1.32926360e-01, -3.89868975e-01, 4.54294920e-01,
          8.60294819e-01, -2.96954393e-01, -4.24786001e-01,
          -7.06533492e-02, 7.70205736e-01, 5.24790108e-01,
          7.41510093e-02, -1.34590581e-01, 5.29031038e-01,
          4.78121430e-01, -3.33511144e-01, 4.10680652e-01,
          -1.33186594e-01, -4.35285717e-01, -2.25833341e-01,
          5.03373325e-01, -2.76173770e-01, 7.39464819e-01,
          -1.56664923e-01, 1.68914258e-01, 2.93508135e-02,
          1.02382040e+00, -4.38839942e-01, -5.45590103e-01,
          -2.97621548e-01, -7.07891285e-01, 1.24717310e-01,
          -1.12569660e-01, 4.43633109e-01, 1.36175975e-01,
          3.15247864e-01, -7.07297802e-01, 2.94975668e-01,
          2.06958652e-01, -3.97173941e-01, 5.67526221e-01,
          -1.07238896e-01, -3.76094878e-01, -4.72809732e-01,
          3.70549232e-01, 3.03352028e-01, 1.84300035e-01,
          -4.50524390e-01, -1.75181210e-01, 4.07853305e-01,
          1.10279404e-01, -4.34669763e-01, 9.50284973e-02,
          -3.97936672e-01, -1.30929753e-01, 1.23784155e-01,
          2.98365176e-01, -4.48938280e-01, 1.60794958e-01,
          -7.35887289e-01, -7.99279749e-01, 4.85182256e-01,
          -1.39286846e-01, -8.04658651e-01, 6.35337949e-01,
          -5.53587079e-01, -8.07585299e-01, -1.33438066e-01,
          -4.11514081e-02, -3.66007745e-01, 5.10420680e-01,
          2.87983924e-01, -5.98001063e-01, 2.19245628e-02,
          2.34220237e-01, -1.41746148e-01, -3.76488596e-01,
          -5.43735445e-01, 4.39417005e-01, 1.03187695e-01 ]
      - [ 7.19493294e+00, 4.35983610e+00, 7.02636003e+00, 3.80029249e+00,
          1.14653218e+00, -2.24522853e+00, 7.28464127e-01,
          1.55088902e+00, 2.92604595e-01, 2.84885049e+00,
          -2.39920640e+00, -1.19116688e+00, 1.06469345e+00,
          1.58704177e-01, 2.18952727e+00, -8.71250451e-01,
          1.34917855e-01, -1.25655544e+00, 1.72331691e+00,
          -2.16549850e+00, 2.53163427e-01, 2.14797378e-01,
          8.76127064e-01, -1.51625288e+00, 1.05048406e+00,
          7.21096933e-01, -2.48311490e-01, -2.62054175e-01,
          1.02392125e+00, 2.19786689e-01, 3.90543342e-01, 1.93444695e-02,
          3.73168707e-01, 4.30476367e-01, 3.02571118e-01,
          -4.69018757e-01, 5.11132181e-01, 3.79459225e-02,
          -5.44029295e-01, 7.00394988e-01, 3.93101126e-01,
          -7.89214611e-01, -4.90149669e-03, -7.64698386e-01,
          1.73333585e-01, 2.87745774e-01, 9.47710965e-03,
          -1.29454482e+00, -1.96978569e-01, -3.04803044e-01,
          5.53493917e-01, 1.45610899e-01, 3.55234509e-03,
          -7.25513935e-01, -1.29110262e-01, 5.29675364e-01,
          -3.14299554e-01, 5.59781611e-01, 2.39464894e-01,
          -9.56169903e-01, 2.98611373e-01, 2.68225700e-01,
          -2.00266436e-01, -3.90918143e-02, 2.55495697e-01,
          -1.71175882e-01, -2.60430217e-01, -7.12222636e-01,
          2.04411037e-02, 3.96366417e-01, 4.98282075e-01,
          -3.02478403e-01, -4.90838826e-01, -4.71263602e-02,
          1.46023139e-01, -1.90421090e-01, -6.56984746e-02,
          2.98882395e-01, 3.28991979e-01, -5.98901033e-01,
          -2.33759284e-01, 6.80514276e-01, 2.07932349e-02,
          -7.03929842e-01, -1.74534738e-01, -2.90033281e-01,
          -7.22466528e-01, 2.98728585e-01, -2.45100632e-01,
          -4.60301787e-01, 3.42498809e-01, 7.52944499e-02,
          -6.19777560e-01, 6.15075946e-01, -7.03089237e-01,
          -4.12602127e-01, 1.00993180e+00, -2.23184347e-01,
          -1.13316402e-01, -9.03964490e-02 ]
      - [ 6.48370123e+00, 1.44739687e+00, 4.64507055e+00, 5.79959249e+00,
          1.18985593e+00, -3.74117112e+00, 1.10675001e+00,
          1.50852227e+00, 8.52839410e-01, -2.04597652e-01,
          4.28660870e-01, 2.69878149e-01, -1.14971113e+00,
          -2.73435950e-01, -5.90906918e-01, -1.28016961e+00,
          7.78909981e-01, -2.13744402e+00, 3.25779289e-01,
          8.15815106e-02, -9.74400938e-01, -1.26329482e+00,
          1.62021196e+00, 3.28229487e-01, 1.57723635e-01, 2.25542814e-01,
          9.14596140e-01, -6.27204001e-01, 4.36960280e-01,
          -9.59597647e-01, 6.99637979e-02, -3.48028302e-01,
          7.53873587e-01, 4.58946198e-01, 1.17289889e+00,
          -1.78847551e-01, 5.89882612e-01, -1.04882073e+00,
          -2.83920825e-01, 2.07375482e-01, -8.57532084e-01,
          -7.16056049e-01, -8.47926617e-01, 4.93850797e-01,
          6.23606704e-02, -9.09284711e-01, -1.09905756e+00,
          4.87145722e-01, -2.36600295e-01, 3.04028273e-01,
          2.54641563e-01, 4.24712360e-01, -1.52200565e-01,
          4.12632138e-01, -3.51350278e-01, -4.95384693e-01,
          -5.72974503e-01, 6.37486339e-01, 4.07162756e-01,
          7.57602155e-01, 2.14373432e-02, 2.46900067e-01,
          -7.96006441e-01, 5.82404844e-02, 2.57797450e-01,
          -9.99813601e-02, -3.80123258e-01, -5.96044362e-01,
          -9.14929807e-02, -8.38362694e-01, -1.73348814e-01,
          -4.79200363e-01, 1.52336225e-01, -4.83341664e-01,
          -8.45314026e-01, 1.90265015e-01, -9.90564656e-03,
          -5.35230935e-01, -3.27799261e-01, 4.58185464e-01,
          -8.81798148e-01, 1.87189169e-02, 5.63402414e-01,
          3.05880874e-01, -2.40705833e-01, -1.37508437e-02,
          4.47445869e-01, 5.45169413e-01, 2.09846273e-01,
          -7.98082799e-02, -1.53551415e-01, 2.23224550e-01,
          -3.37337524e-01, 3.00179750e-01, 9.46920887e-02,
          -1.47835329e-01, 3.64310503e-01, -1.56651527e-01,
          -1.73644125e-01, 1.64733112e-01 ]
      - [ 6.61765528e+00, 1.52907670e+00, 7.07140863e-01, 4.55466270e+00,
          1.56083345e+00, -6.68697882e+00, 1.28629482e+00,
          2.49486566e+00, -1.78399301e+00, 7.85151958e-01,
          -1.30152035e+00, -2.90427947e+00, -3.17500621e-01,
          2.63138437e+00, -6.85460925e-01, 6.95479870e-01,
          2.16976911e-01, -1.08382809e+00, -5.55104837e-02,
          2.41461921e+00, -1.33459997e+00, -1.36281326e-01,
          3.31782103e-01, -2.75917673e+00, -2.07434773e+00,
          7.34031677e-01, -1.08849421e-01, 1.70390821e+00,
          1.15165615e+00, -9.10696149e-01, 1.00710452e+00,
          5.96815534e-02, 1.62168157e+00, 6.84318781e-01, 8.00178170e-01,
          9.11184847e-01, 1.15044010e+00, -1.27042913e+00,
          1.42569736e-01, -5.37241280e-01, -5.17360605e-02,
          -4.27131027e-01, 1.35404086e+00, 3.84415954e-01,
          -1.02202880e+00, 1.44441867e+00, -1.19702423e+00,
          1.23680675e+00, -3.14366847e-01, -2.50403911e-01,
          6.62142158e-01, 2.39874478e-02, 2.34984040e-01, 6.27346337e-01,
          6.73475027e-01, -5.74047983e-01, 1.31443828e-01,
          -2.92679280e-01, -5.72332382e-01, -6.12088919e-01,
          3.94839823e-01, -2.03803241e-01, -4.68974411e-02,
          -1.22679877e+00, 3.89947221e-02, -6.08003587e-02,
          -1.18105173e+00, 1.03014493e+00, 7.60066271e-01,
          -7.63391793e-01, -3.07771444e-01, 3.60951096e-01,
          3.48441809e-01, -4.63879734e-01, -1.90844774e-01,
          -1.27523971e+00, 8.26940596e-01, 7.94461727e-01,
          2.13374153e-01, -2.20181227e-01, -3.21896464e-01,
          8.15019190e-01, 6.49746060e-01, -1.00951850e+00,
          -4.05971706e-01, 6.23302281e-01, -4.33577955e-01,
          3.37202668e-01, 8.80435884e-01, -1.16837375e-01,
          3.32812518e-01, -1.48693293e-01, -2.50038117e-01,
          5.74769020e-01, -3.70486945e-01, -3.76884267e-02,
          2.57906795e-01, -3.14578265e-01, -5.49487591e-01,
          -2.05261439e-01 ]
      - [ 7.38294172e+00, 1.56439614e+00, 4.41099739e+00, 5.29038954e+00,
          1.34999752e+00, -3.97706056e+00, 8.14041734e-01,
          1.88077784e+00, 8.90874147e-01, 6.47022009e-01,
          -1.33718655e-01, 2.86229551e-01, -1.05269372e+00,
          1.69759259e-01, -6.02859199e-01, -1.49365067e+00,
          4.37976241e-01, -1.57284164e+00, 1.95299089e-01,
          -6.86009452e-02, -7.05958009e-01, -1.09181201e+00,
          1.73708749e+00, 6.01706386e-01, -3.90841156e-01,
          6.96796551e-02, 5.17906427e-01, -5.54975986e-01,
          -5.50855696e-02, -1.01740158e+00, -1.98100775e-01,
          -2.77003258e-01, 4.99112815e-01, 2.23747492e-01,
          9.87489045e-01, -8.12312603e-01, 1.21468031e+00,
          -6.33978188e-01, 2.90139109e-01, -7.30937347e-02,
          -7.15755939e-01, -5.76279163e-01, -1.15914965e+00,
          5.72126031e-01, -2.94647723e-01, -4.93591815e-01,
          -7.35584497e-01, 2.30016246e-01, 3.34307969e-01,
          1.60134986e-01, -3.43193442e-01, 1.10345609e-01,
          4.44978289e-03, 1.80004314e-01, -4.13497210e-01,
          -1.69987664e-01, -5.80718100e-01, 2.71194130e-01,
          5.74507058e-01, 7.97768831e-01, -1.95255101e-01,
          -5.71333952e-02, -7.92612016e-01, 1.90879330e-01,
          -1.44542709e-01, 2.95160055e-01, -5.59149534e-02,
          -6.40613794e-01, -5.27590215e-01, -6.62756681e-01,
          4.46380496e-01, -3.55564833e-01, -2.56152600e-01,
          1.17746525e-01, -2.70823658e-01, 6.94824159e-01,
          2.23083179e-02, -1.40787631e-01, -2.12387051e-02,
          -2.07745269e-01, -9.11751330e-01, -3.63328815e-01,
          6.61552012e-01, 2.37535059e-01, -2.39101220e-02,
          1.48942307e-01, 1.55723795e-01, 1.95432022e-01, 2.42896348e-01,
          7.64110982e-02, 2.97082633e-01, 1.33251265e-01,
          -1.19456090e-01, 5.51568419e-02, -5.31330287e-01,
          3.59551430e-01, 2.08880469e-01, -4.01893765e-01,
          3.57081681e-01, 5.78334257e-02 ]
      - [ 6.66367483e+00, 1.30515933e+00, 3.84680629e+00, 4.91989088e+00,
          3.87590453e-02, -5.56621075e+00, 1.86314213e+00,
          1.38790381e+00, -1.11458623e+00, 1.37020087e+00,
          -7.05673635e-01, -8.52726936e-01, -2.63347507e+00,
          1.48068702e+00, -5.03833413e-01, 7.90685177e-01,
          5.69421589e-01, -1.58906579e+00, -7.18011484e-02,
          1.91615593e+00, -5.52562654e-01, -3.56432229e-01,
          1.25103009e+00, -2.01372814e+00, -2.00100875e+00,
          2.39783153e-01, 1.21498656e+00, 2.84236407e+00, 4.70607549e-01,
          -1.10695004e+00, 8.35861266e-01, -1.07173824e+00,
          7.13875651e-01, 9.60103750e-01, -3.28061461e-01,
          -1.00592995e+00, 7.34802008e-01, 4.15752858e-01,
          -6.55984342e-01, -3.64951551e-01, 5.92427492e-01,
          6.15631163e-01, 1.87230825e-01, 6.35254264e-01,
          -1.43064272e+00, 1.55235791e+00, -3.24762434e-01,
          2.34184694e+00, 6.92349434e-01, -7.11741209e-01,
          -4.95475292e-01, -6.00327730e-01, 1.84334254e+00,
          5.82840562e-01, -4.79323685e-01, -2.64129937e-01,
          6.13660991e-01, 3.98112208e-01, -1.87487975e-01,
          1.30827323e-01, 8.97099257e-01, 6.73189878e-01, 1.69037938e-01,
          2.16380402e-01, 2.87932843e-01, -7.28662461e-02,
          -4.28723812e-01, 8.39600325e-01, -2.67101943e-01,
          -2.68792868e-01, -6.19897246e-01, 1.73974395e-01,
          6.99125588e-01, 8.90781939e-01, 2.56279469e-01, 5.17133951e-01,
          -3.65774170e-03, 2.08873808e-01, 7.02074587e-01,
          3.61544073e-01, 3.21665943e-01, 3.05672079e-01, 1.16490893e-01,
          1.00883317e+00, -3.29329878e-01, 8.71052817e-02,
          7.56250545e-02, -1.44875020e-01, -2.65772313e-01,
          -7.16437027e-02, -3.00671220e-01, -1.42294168e-01,
          2.56054461e-01, 9.59431887e-01, -4.90502685e-01,
          3.64442289e-01, -1.16535060e-01, -4.51414913e-01,
          1.93887591e-01, -1.50197253e-01 ]
      - [ 7.39634562e+00, 1.30147183e+00, 4.00781298e+00, 4.23843670e+00,
          7.74716064e-02, -4.72718143e+00, 8.48208308e-01,
          1.86174512e+00, 1.74136490e-01, 9.89139974e-01, 6.52936995e-01,
          -1.20047224e+00, -7.21852541e-01, -5.27907372e-01,
          -2.03577352e+00, -2.06948400e+00, 2.40825966e-01,
          1.43336549e-01, -8.37778866e-01, 1.41942573e+00,
          4.05075759e-01, -1.23070562e+00, 8.10899019e-01,
          1.39994490e+00, -7.52647579e-01, 1.53453946e-01,
          -5.07920645e-02, 1.29432097e-01, -1.90516114e-01,
          -2.87090868e-01, 1.49278015e-01, 1.95833132e-01,
          -8.06234062e-01, -1.51780099e-02, -1.94302406e-02,
          -5.09082258e-01, 3.21927667e-01, -4.35298324e-01,
          -6.23413563e-01, 1.73770219e-01, 2.66441852e-01,
          -7.75032043e-02, -4.33593422e-01, 4.18871880e-01,
          -5.09025872e-01, -2.16090500e-01, -1.16079533e+00,
          1.15805626e+00, 1.33220151e-01, 6.27507508e-01,
          -5.25791466e-01, -8.46157908e-01, -8.19101091e-03,
          6.68751150e-02, 5.18880924e-03, -5.44360699e-03,
          -4.03836891e-02, -1.68944612e-01, 1.36469547e-02,
          7.79113352e-01, 4.09240901e-01, -2.43996352e-01,
          2.12648854e-01, 5.55227935e-01, 9.82372016e-02, 8.27941358e-01,
          7.01691389e-01, 2.22253636e-01, -1.03278793e-01,
          1.98615924e-01, -1.14795133e-01, -2.92120844e-01,
          -4.57564265e-01, 3.57477367e-01, 5.27402759e-01,
          -8.29485506e-02, -9.18778241e-01, -3.78987938e-01,
          3.93795073e-01, -4.59943950e-01, 1.66395605e-01,
          5.67789733e-01, 3.53909940e-01, -5.73318303e-01,
          -1.06010981e-01, 2.74867982e-01, 2.41655394e-01,
          -4.69434768e-01, -4.69367564e-01, -2.75522191e-03,
          -3.34220856e-01, -1.50068372e-01, -2.75978684e-01,
          -2.63723452e-03, 2.99597740e-01, 1.43189384e-02,
          -1.79489747e-01, 2.61870861e-01, -9.79843378e-01,
          -4.50943187e-02 ]
      - [ 7.81514883e+00, 1.09137855e-01, 3.53545427e+00, 3.16991615e+00,
          6.33214235e-01, -5.21710253e+00, 9.10919309e-01,
          1.32857895e+00, 1.30039537e+00, 2.29836345e+00,
          -1.91604316e+00, -1.84251213e+00, 3.06980193e-01,
          6.85470402e-01, -1.23841095e+00, 1.46899748e+00,
          1.53070688e+00, 3.03236544e-01, 1.06258941e+00, 1.97065115e+00,
          -2.16876364e+00, -1.10965312e-01, 4.84273732e-01,
          6.48633420e-01, -9.24237445e-02, -3.37443620e-01,
          6.21020079e-01, -6.50843918e-01, 1.23597753e+00,
          -1.34018946e+00, 5.40831722e-02, 6.29897475e-01,
          -5.51763833e-01, 9.65309680e-01, 2.20599747e+00,
          -3.38541299e-01, 1.16826987e+00, -6.59663022e-01,
          7.32979834e-01, -1.86113492e-01, 2.04482824e-01,
          -1.22341919e+00, -5.38456023e-01, 1.19190800e+00,
          -1.37681234e+00, -1.12820876e+00, -1.21374652e-01,
          -1.14739500e-01, 6.65746033e-01, 2.80443262e-02,
          3.26567888e-01, -1.05736744e+00, 6.15273058e-01,
          8.99856329e-01, -2.16429576e-01, 5.89683294e-01,
          1.03369153e+00, 1.29158273e-01, 3.21436226e-01,
          -4.28498685e-02, -1.53950498e-01, 9.41546321e-01,
          -4.19145346e-01, 4.14656520e-01, -6.12382032e-02,
          1.06976545e+00, 1.45356131e+00, -7.96754062e-01,
          -1.16934824e+00, 4.65158224e-01, 1.10131919e+00,
          6.17388308e-01, -7.92248964e-01, 5.18182516e-01,
          -7.34903991e-01, 1.70228511e-01, -2.66382933e-01,
          1.32123306e-01, -7.44135141e-01, 3.25754791e-01,
          6.29892573e-02, 6.57656789e-01, 9.20110419e-02,
          -7.16191232e-01, 9.95443583e-01, 2.33122104e-04,
          2.59390146e-01, -8.03955376e-01, 2.37842306e-01,
          -6.12064838e-01, 5.94995134e-02, 1.95761085e-01,
          -4.84966964e-01, 1.43927425e-01, 2.06488237e-01,
          -1.46368194e+00, -3.75451869e-03, 4.91066486e-01,
          1.16986483e-01, -9.29126590e-02 ]
      - [ 7.61283779e+00, 1.81912649e+00, 3.57523084e+00, 2.01868629e+00,
          -9.88349795e-01, -4.29784918e+00, 1.88347721e+00,
          5.14764130e-01, -1.63206136e+00, 4.43917274e-01,
          -3.97680610e-01, -5.32195866e-01, 3.46596122e-01,
          2.10295483e-01, -5.84205091e-01, -1.40278125e+00,
          -5.13149321e-01, 8.30148578e-01, -2.61098647e+00,
          1.91179049e+00, 1.93132007e+00, -1.09992599e+00,
          -1.75566006e+00, 1.11228359e+00, -1.08909273e+00,
          1.39004934e+00, -1.08204544e+00, 1.28722143e+00,
          -3.58135015e-01, 1.22779620e+00, 7.01770604e-01,
          7.31205523e-01, -1.69691050e+00, -8.48095298e-01,
          -7.39375651e-01, 2.80051231e-01, -7.70353317e-01,
          -1.55020021e-02, -2.01884151e-01, 3.53024095e-01,
          3.45892698e-01, -5.33050716e-01, 8.79604042e-01,
          -3.78851801e-01, -1.27203420e-01, -1.24483204e+00,
          2.11218610e-01, 6.02099359e-01, 4.43883449e-01, 2.15013057e-01,
          -1.08377242e+00, -1.42697051e-01, -7.32306540e-01,
          -3.54255170e-01, -2.87385359e-02, -1.86660942e-02,
          -3.98083717e-01, 8.21430460e-02, 3.30303192e-01,
          -2.32409373e-01, 1.90833241e-01, -5.12512922e-01,
          -1.52283922e-01, 4.24024016e-01, -1.00404084e+00,
          3.33349109e-01, -1.64592355e-01, -3.91791493e-01,
          2.83982694e-01, -3.49964015e-02, 2.17585459e-01,
          -1.23643436e-01, 5.23791969e-01, -6.18172467e-01,
          3.98689285e-02, -2.27858350e-02, -1.86211318e-02,
          1.77045032e-01, 1.81401670e-02, -8.93259272e-02,
          -1.60669982e-02, -3.47152591e-01, 4.92810793e-02,
          3.23020965e-02, 1.18614113e+00, -6.70270026e-01,
          3.51129115e-01, 9.54132155e-02, 8.31966639e-01,
          -3.07100564e-01, 8.38612020e-01, -7.11613953e-01,
          5.14288545e-01, -1.30502582e-01, 3.82928729e-01,
          3.43750805e-01, 1.16749585e-01, -3.86745423e-01,
          -1.26812637e-01, -6.85616881e-02 ]
      - [ 7.05018663e+00, 5.15089393e-01, 3.17136645e+00, 1.09981263e+00,
          7.88800180e-01, -6.45817852e+00, 1.32021308e+00,
          7.13778853e-01, -1.29788709e+00, 1.84296429e+00,
          -2.08644986e+00, -2.79105020e+00, 1.14696777e+00,
          1.33675289e+00, 3.40396643e-01, 2.18409204e+00,
          -2.45744586e-01, 4.69247848e-01, -1.43784237e+00,
          3.67160463e+00, -9.27353561e-01, -1.93847463e-01,
          -1.80352712e+00, 1.62236288e-01, -1.06846261e+00,
          -3.09802622e-01, 1.64750502e-01, 8.08057427e-01,
          -5.38300991e-01, -2.83893883e-01, 1.20730376e+00,
          9.69000340e-01, -2.43427634e+00, -2.09910810e-01,
          2.03815430e-01, 1.29248157e-01, -1.16397548e+00,
          9.04350817e-01, -3.63834858e-01, 8.08196127e-01,
          2.32806444e-01, -4.56184417e-01, -1.43909478e+00,
          -9.65939283e-01, -8.21698368e-01, -9.42775548e-01,
          4.49142218e-01, -1.18349922e+00, 6.41086459e-01,
          1.09242806e-02, -6.33179396e-02, -1.02458739e+00,
          7.02280030e-02, 7.36920655e-01, 7.63975322e-01, 1.09658755e-01,
          5.69070101e-01, -1.12964737e+00, -1.93355620e-01,
          -6.26988530e-01, 6.56147972e-02, -1.12029046e-01,
          -4.08607543e-01, 4.66670126e-01, 3.59893776e-02,
          -8.97259772e-01, 9.52947661e-02, -6.38250232e-01,
          6.03585690e-03, -6.84116602e-01, 3.68693918e-01,
          -3.49543132e-02, -7.60428309e-02, -3.91338855e-01,
          8.04819763e-02, 9.45662335e-02, 1.63600996e-01,
          -2.17858568e-01, 9.95777845e-01, 5.31546354e-01,
          4.96022195e-01, 1.02969968e+00, -8.13840330e-01,
          -3.18296522e-01, 1.05459685e-03, 6.33504033e-01,
          4.80753690e-01, 5.42679653e-02, 2.05373704e-01, 3.02620977e-01,
          -2.10235655e-01, 9.96212125e-01, 3.80736649e-01,
          -5.59163392e-01, -1.04383565e-01, -4.14496988e-01,
          7.53351271e-01, 2.28285223e-01, -4.78112072e-01,
          3.23982239e-01 ]
      - [ 7.32344389e+00, 1.70648062e+00, 1.89342749e+00, 3.81734341e-01,
          1.38333988e+00, -5.56604910e+00, 3.43853998e+00,
          2.78905392e+00, -1.55409384e+00, -8.46037388e-01,
          -7.52535939e-01, -2.74071646e+00, 1.62853289e+00,
          1.92464077e+00, 1.93211782e+00, 1.62034130e+00,
          -1.87620378e+00, 1.38919842e+00, -2.36992359e+00,
          6.47663653e-01, -1.37320447e+00, 2.22749496e+00,
          -2.06013918e+00, 8.98961782e-01, -3.22592258e-01,
          -1.20056367e+00, -6.43399358e-01, 7.85655975e-01,
          1.34239304e+00, -9.05914366e-01, 9.77746725e-01,
          7.99670339e-01, -1.20385957e+00, 8.90640765e-02,
          -1.30839527e+00, 9.03205574e-01, -1.48630273e+00,
          3.33313718e-02, 1.15567580e-01, -1.93661422e-01,
          2.60232389e-01, 2.27075860e-01, -3.71097416e-01,
          -1.20731473e+00, -6.40396297e-01, 2.33662695e-01,
          1.94826826e-01, -1.45382500e+00, 2.41909564e-01,
          -2.72993326e-01, 4.49677855e-02, -3.65226120e-01,
          9.36700106e-01, -8.53437483e-02, -1.03320146e+00,
          1.08097255e+00, -3.26686412e-01, 9.97112870e-01,
          -1.20771384e+00, -1.16288960e+00, -1.31618097e-01,
          8.17155123e-01, 2.61014730e-01, 3.03028494e-01, 1.26148212e+00,
          1.65336072e-01, -6.20397106e-02, 6.08477235e-01,
          -9.66519833e-01, 4.72459942e-01, 8.37404430e-01,
          -1.33602762e+00, 1.43712252e-01, 3.36969644e-02,
          -1.06812946e-01, 7.12060094e-01, 1.98926240e-01,
          3.58877659e-01, 3.86225551e-01, 4.43250984e-01, 1.40009254e-01,
          2.88022548e-01, 9.19644296e-01, 1.15542494e-01,
          -8.00780505e-02, 3.55545506e-02, 2.37850457e-01,
          -4.79027241e-01, -3.02710384e-01, 1.22581258e-01,
          3.47276062e-01, -2.97073573e-01, 7.10603654e-01,
          4.08098876e-01, 2.32881948e-01, -3.75102371e-01,
          -1.15173526e-01, -3.32728446e-01, 4.17487830e-01,
          -2.22029418e-01 ]
      - [ 7.31333733e+00, 1.49311614e+00, 9.33449864e-01, 1.15822029e+00,
          1.18747795e+00, -4.75067139e+00, 3.48443270e+00,
          2.87668228e+00, -9.47716832e-01, -1.73878241e+00,
          -2.81877935e-01, -3.56003690e+00, 1.98071349e+00,
          1.84779537e+00, 1.77229881e+00, 9.13620591e-01,
          -1.95467138e+00, -3.10663767e-02, -3.23053789e+00,
          1.42776191e+00, -7.13847697e-01, 7.40664184e-01,
          -1.33560133e+00, 2.07472473e-01, -1.12527239e+00,
          -1.46287394e+00, -1.97120547e+00, 5.17628670e-01,
          1.74608719e+00, -4.61642563e-01, 1.70086670e+00,
          8.85008395e-01, -1.14423442e+00, -7.44523481e-02,
          3.37661922e-01, 1.81221640e+00, -1.18388844e+00,
          -3.19580585e-01, 1.07642658e-01, -1.03243077e+00,
          -1.51204765e-01, 7.87272677e-03, -3.33443403e-01,
          1.31119832e-01, 3.80357169e-02, 9.21074510e-01, 6.17688775e-01,
          6.69733882e-02, -6.33835614e-01, 5.36665618e-01,
          -1.55214533e-01, -3.32751960e-01, -3.22621047e-01,
          5.24270833e-01, -5.36815405e-01, 4.90409404e-01,
          2.65076041e-01, 1.32978022e-01, -7.45525435e-02,
          -9.55548212e-02, 7.73075879e-01, 5.47534525e-01,
          1.01018155e+00, -3.62714082e-02, -2.95353867e-02,
          5.62199056e-01, 2.17829019e-01, 3.89783144e-01,
          -5.66653535e-02, -7.54380524e-02, 8.30926299e-01,
          2.35599920e-01, 3.62941056e-01, -1.36434540e-01,
          -5.93912840e-01, 8.94460261e-01, 2.23922223e-01,
          9.85863328e-01, 6.16597533e-01, 3.95929575e-01,
          -4.58704710e-01, -5.79115152e-01, -6.25356913e-01,
          -7.61051893e-01, 6.58846498e-02, 1.16621941e-01,
          -3.15804854e-02, 4.73323762e-01, 5.65883040e-01,
          -7.25384414e-01, -1.55347228e-01, -4.89707857e-01,
          -5.85782640e-02, 1.16479576e+00, -5.06502867e-01,
          4.61226046e-01, -4.24525321e-01, -4.18295801e-01,
          5.18730044e-01, -1.10869870e-01 ]
      - [ 7.05465651e+00, 1.74416530e+00, 2.02586985e+00, 9.83336926e-01,
          6.39852345e-01, -5.95847178e+00, 2.65207386e+00,
          2.76357865e+00, -1.84498715e+00, -6.46510184e-01,
          -1.44752359e+00, -3.20829391e+00, 2.31810570e+00,
          1.52468753e+00, 2.25595117e+00, 2.01762056e+00,
          -1.26930547e+00, 1.71788108e+00, -2.28476548e+00,
          1.65010870e+00, -1.11959410e+00, 1.20503485e+00,
          -1.69531453e+00, 8.28479111e-01, 4.10359353e-01,
          -1.22175241e+00, -7.45018959e-01, 5.04429698e-01,
          2.87379678e-02, -7.46772647e-01, 1.56064534e+00,
          9.76827681e-01, -1.68553746e+00, -2.01540291e-01,
          -6.60755455e-01, 7.20212638e-01, -1.17999601e+00,
          6.74623370e-01, 2.99249142e-01, 5.89308262e-01, 1.08877039e+00,
          -5.63783288e-01, -7.55390942e-01, -1.21596849e+00,
          3.23228508e-01, -2.82865584e-01, 6.99937224e-01,
          -1.18918097e+00, -1.39654487e-01, -1.44204199e-01,
          -9.33675542e-02, 7.10027963e-02, 6.78785264e-01,
          -3.36622447e-01, -1.15422118e+00, 1.20657548e-01,
          4.05629247e-01, 5.87913275e-01, -1.59112191e+00,
          -1.12706959e+00, 3.78741056e-01, 9.78083909e-03,
          4.54467058e-01, -4.44712996e-01, 6.58156872e-01,
          1.86277837e-01, -4.15233970e-01, -8.12106300e-03,
          9.20204818e-02, 2.93577015e-01, 8.28330934e-01,
          -4.56503779e-01, 1.88091714e-02, -2.70184994e-01,
          3.35120201e-01, -1.44909071e-02, -1.01848327e-01,
          6.07214153e-01, 2.95236498e-01, 4.41667289e-01, 5.09588420e-02,
          -3.44744235e-01, 4.28880692e-01, 6.96325302e-01,
          9.07641575e-02, 3.32114786e-01, 5.52763902e-02,
          -4.71946180e-01, 4.48346809e-02, -8.86403173e-02,
          1.33055046e-01, 1.22953445e-01, 6.00278318e-01,
          -1.92127407e-01, -3.75596166e-01, 1.53171476e-02,
          -5.13336897e-01, -8.05590004e-02, -1.06048182e-01,
          -3.27122152e-01 ]
      - [ 8.48038578e+00, 3.29196763e+00, 1.85308194e+00, 3.40416431e+00,
          2.75066078e-01, -3.53813696e+00, 2.47538996e+00,
          3.04236746e+00, -7.00028121e-01, -1.02257049e+00,
          3.90149653e-01, -3.79474670e-01, 9.40552115e-01,
          7.04612359e-02, -4.49748076e-02, -1.45372128e+00,
          -2.56620240e+00, 1.04476082e+00, -2.04356980e+00,
          -9.81456637e-02, 6.69602275e-01, 7.13223577e-01,
          -1.60835826e+00, -2.15704873e-01, -2.79168814e-01,
          4.77286637e-01, -1.63862610e+00, 2.24084809e-01,
          2.78887182e-01, 5.52103043e-01, -4.94556427e-01,
          8.28443944e-01, -1.32920817e-01, -1.07829857e+00,
          -5.64744413e-01, 1.22676766e+00, -2.43028387e-01,
          -2.19481006e-01, -9.60758552e-02, -9.08581913e-02,
          -4.99213874e-01, -1.81675255e-01, 1.21939436e-01,
          -1.91156656e-01, 8.87899518e-01, 3.80122036e-01,
          6.14430308e-01, -2.11788893e-01, -5.30488431e-01,
          3.13906461e-01, -6.96909130e-01, -2.39359587e-01,
          7.82107934e-02, -2.00959146e-01, 4.43748683e-01,
          -4.32752043e-01, 3.77492577e-01, 6.93808973e-01,
          9.57420543e-02, 2.45637089e-01, 7.75013149e-01,
          -1.28692156e-02, 6.55103087e-01, 7.32880533e-01,
          -3.50797832e-01, 6.31535769e-01, 2.50707984e-01,
          -4.41802710e-01, 4.92579430e-01, 8.29007983e-01,
          -7.68174790e-03, -7.17356279e-02, 6.65045440e-01,
          -9.97906625e-01, -5.67678869e-01, -1.10286012e-01,
          2.68277645e-01, 4.75321084e-01, -1.97908981e-03,
          -5.92680395e-01, -1.06218316e-01, -3.14052403e-01,
          -3.52485299e-01, -1.84618384e-01, 2.45901686e-03,
          -7.81481087e-01, -3.81768160e-02, 3.72176021e-01,
          -8.36884417e-03, -3.48300010e-01, -2.18674287e-01,
          2.27354050e-01, -2.11192727e-01, 7.60331035e-01,
          3.15964632e-02, 7.05216467e-01, 6.52858377e-01,
          -2.11098135e-01, 7.62174547e-01, -8.98479223e-02 ]
      - [ -2.20703864e+00, -3.71920347e+00, 2.24084520e+00,
          1.07893133e+00, 3.90736461e+00, 3.74201179e+00, 6.47003114e-01,
          -1.49372578e+00, -7.52610147e-01, 8.99901092e-01,
          2.28714895e+00, 1.54182410e+00, -2.39798054e-01,
          -2.23373246e+00, -1.30757260e+00, -1.47247469e+00,
          4.60755408e-01, 8.03971112e-01, 5.79095364e-01, 1.09513380e-01,
          -6.91879034e-01, 1.11721587e+00, -5.07451653e-01,
          5.77393949e-01, -6.97029650e-01, -3.74058455e-01,
          3.90979290e-01, 1.00223280e-01, -2.23215520e-01,
          5.91985404e-01, -1.47132301e+00, -9.77024734e-01,
          -3.30654770e-01, -5.93629852e-02, -2.40169749e-01,
          -1.10197282e+00, -3.22527468e-01, -8.46207976e-01,
          -4.64799285e-01, -2.23821148e-01, -5.09640038e-01,
          4.84678149e-01, 6.69378787e-02, 4.50107753e-01,
          -7.11308062e-01, -1.09404087e+00, 1.09681523e+00,
          1.25777161e+00, -1.35975993e+00, -1.34727979e+00,
          -1.09162807e+00, 1.22959822e-01, -1.69370860e-01,
          -5.04195035e-01, 3.25156003e-01, -3.23700726e-01,
          -1.43508554e-01, 1.02416778e+00, -6.15529306e-02,
          -1.17541462e-01, 1.41267553e-01, -6.80787683e-01,
          4.38473493e-01, -1.06056678e+00, -5.52493811e-01,
          1.83293477e-01, -2.31411725e-01, 1.78281069e-01,
          9.05630887e-01, 1.96852729e-01, 5.49015030e-02,
          -2.17922613e-01, -6.78728044e-01, -3.89667362e-01,
          9.86794829e-01, 5.91385253e-02, 5.40566206e-01, 2.75682975e-02,
          6.35098219e-01, 1.10848956e-01, 5.86950541e-01,
          -2.94954896e-01, -3.20622414e-01, -5.53721666e-01,
          -4.08616215e-01, 1.52448222e-01, -6.85707390e-01,
          8.08522820e-01, -4.81405824e-01, 3.39963734e-01,
          -1.08669686e+00, 4.26145107e-01, 1.00147116e+00,
          5.90049982e-01, -1.27495140e-01, 5.47633767e-01,
          3.31173837e-01, -2.99560845e-01, 4.23274964e-01,
          4.53523904e-01 ]
      - [ -1.96136558e+00, -4.84075785e+00, 3.37395167e+00,
          -3.99566740e-01, 1.91346478e+00, 3.10905004e+00,
          -8.78946781e-01, 9.39026654e-01, -4.48999107e-01,
          6.91338420e-01, 2.31582189e+00, 2.65545440e+00, 7.24670338e-03,
          -2.31878233e+00, -1.86644650e+00, -2.83533901e-01,
          1.41422784e+00, 7.25865781e-01, 3.90805185e-01,
          -8.86088371e-01, -1.13812126e-01, 9.26128030e-01,
          -1.48027039e+00, -3.67983520e-01, -1.10277939e+00,
          1.24528490e-01, 6.02118969e-01, -1.29464835e-01,
          -6.64238453e-01, 5.34594238e-01, -3.82324815e-01,
          -4.18977916e-01, -1.43268645e-01, -1.26525009e+00,
          -4.81584549e-01, -1.44775248e+00, -6.49252772e-01,
          -2.55102545e-01, -7.12160647e-01, 6.62465543e-02,
          -1.29715323e-01, 1.03935766e+00, 2.63906181e-01,
          -6.07819617e-01, 6.87927306e-02, -7.08083928e-01,
          8.81873488e-01, 6.89131677e-01, -2.17233136e-01,
          -3.43078762e-01, 4.97252762e-01, 3.76211584e-01,
          4.29342687e-01, 1.79447204e-01, -2.54617900e-01,
          2.01362163e-01, 6.65001452e-01, -2.23932974e-02,
          4.77033034e-02, 1.01299964e-01, 2.36171439e-01,
          -6.86326742e-01, -2.78355889e-02, -1.00365758e+00,
          -1.01913065e-02, 7.86494136e-01, -8.55952501e-01,
          -2.42016897e-01, 4.08491194e-02, 5.52664936e-01,
          9.36126113e-01, 3.40111226e-01, -7.97595531e-02,
          2.99799144e-01, -5.38266217e-03, -9.84294116e-01,
          6.74903035e-01, 5.05457342e-01, -3.94211203e-01,
          3.58891100e-01, -2.98794121e-01, 1.62849259e-02,
          1.03134684e-01, 6.61613718e-02, 5.71602643e-01,
          -3.05825919e-01, 2.82419205e-01, 5.82626509e-03,
          1.49562269e-01, 3.57997477e-01, -8.18175852e-01,
          2.03896210e-01, -1.90626249e-01, 1.23390168e-01,
          -9.01195407e-02, 5.42018950e-01, -2.18965281e-02,
          -5.58646262e-01, 3.07461798e-01, -2.27510989e-01 ]
      - [ -1.82090402e+00, -5.20321655e+00, 3.52381849e+00,
          -2.93424904e-01, 1.71271431e+00, 3.01697969e+00,
          -1.09838688e+00, 7.57566512e-01, -7.15967536e-01,
          6.69004977e-01, 2.48989844e+00, 2.47417641e+00, 1.80237785e-01,
          -2.16647100e+00, -1.68100715e+00, -6.69958815e-02,
          8.31448197e-01, 5.10607421e-01, 4.99622166e-01,
          -1.12942600e+00, -1.50224999e-01, 1.04473186e+00,
          -1.39810634e+00, -3.13366354e-01, -1.07287526e+00,
          -5.74544370e-02, 4.21895862e-01, -8.89750272e-02,
          -5.31764030e-01, 6.43815398e-01, -6.47859931e-01,
          -6.09163880e-01, -2.33193338e-01, -1.28119612e+00,
          -3.31494272e-01, -1.65649366e+00, -9.44065332e-01,
          -6.31319404e-01, -4.51017290e-01, 1.76476166e-01,
          -1.29370347e-01, 9.50280368e-01, 4.38607454e-01,
          -2.98534900e-01, 1.57138690e-01, -5.73123813e-01,
          5.04787147e-01, 6.34664357e-01, 1.56748503e-01, 1.13565296e-01,
          4.09989089e-01, 3.91910017e-01, 5.95285781e-02, 3.11801821e-01,
          -4.11290318e-01, 3.62462163e-01, 4.87205952e-01,
          -2.03996345e-01, -9.16535780e-02, 1.33477122e-01,
          3.25292110e-01, -3.41145754e-01, 4.72668093e-03,
          -7.98245072e-01, 7.14551881e-02, 9.25424099e-01,
          -1.05348742e+00, -3.42946619e-01, 7.74756670e-02,
          5.83768725e-01, 1.00550699e+00, 1.79855660e-01, 6.88939020e-02,
          2.65341520e-01, -3.09077129e-02, -7.65023172e-01,
          9.32788730e-01, 6.39460444e-01, -1.01322949e-01,
          4.73867685e-01, -6.78236037e-02, 2.72496998e-01,
          4.71264264e-03, 2.50772804e-01, 4.57613170e-01,
          -2.76499927e-01, 2.04893678e-01, -3.00820004e-02,
          2.85445213e-01, 1.38455898e-01, -8.20550501e-01,
          -7.61888251e-02, -1.19000159e-01, 6.29581809e-02,
          -4.66599166e-02, 3.84559482e-01, -3.48223329e-01,
          -6.69424772e-01, 4.09466237e-01, -2.27364749e-01 ]
      - [ -1.88909185e+00, -4.89122820e+00, 3.74797773e+00,
          -3.77941251e+00, 4.42334604e+00, 1.12174106e+00,
          -1.89214540e+00, 7.55307257e-01, 7.25137472e-01,
          7.94710159e-01, 2.08437467e+00, -2.57301301e-01,
          4.20616150e-01, -1.00955248e+00, 3.45467389e-01,
          2.86381721e-01, 1.21150851e+00, 1.71166629e-01,
          -6.30957037e-02, -2.44515374e-01, -2.09397221e+00,
          1.49223673e+00, -1.00689805e+00, 6.71771049e-01,
          5.82297802e-01, -1.01669395e+00, 1.70071900e+00,
          7.41426587e-01, 1.05786324e+00, 1.23284556e-01, 4.91757333e-01,
          6.88736513e-02, 1.11712468e+00, -6.63448930e-01,
          -9.94027928e-02, -3.40153307e-01, -1.18430503e-01,
          9.71011996e-01, 3.45908314e-01, -3.57535779e-01,
          -3.65250669e-02, -4.59806293e-01, -1.92417622e-01,
          5.06200910e-01, 7.63991535e-01, -9.24669087e-01,
          -5.45128644e-01, 1.88232347e-01, -2.34635007e-02,
          -4.36248720e-01, 5.92467248e-01, -1.92707717e-01,
          -2.28908941e-01, -5.38542926e-01, 4.25229371e-01,
          -1.48707002e-01, -1.71049476e-01, -4.09870088e-01,
          -3.20835203e-01, 6.76426768e-01, -7.69600391e-01,
          -2.54751027e-01, 3.07408348e-02, -1.13244876e-01,
          -3.17441285e-01, -8.68337393e-01, 6.51873529e-01,
          -1.78476200e-01, -1.74963519e-01, -6.67369589e-02,
          -6.09995723e-01, -4.12550792e-02, 3.77570778e-01,
          -3.31035912e-01, 3.24461430e-01, 9.42774892e-01,
          -3.99723530e-01, -3.77900153e-01, 7.64044404e-01,
          1.14618421e-01, 1.31435901e-01, 6.13879859e-01,
          -4.05117087e-02, -7.82241583e-01, 9.00609046e-02,
          -3.81109029e-01, 7.58295655e-01, -1.86264157e-01,
          4.92401272e-02, 4.18732874e-02, 2.51921952e-01, 3.30140352e-01,
          -1.45355761e-01, -1.43082321e-01, 6.55719161e-01,
          -3.16369355e-01, 9.54969451e-02, -6.47491336e-01,
          -2.64841199e-01, -3.47464770e-01 ]
      - [ -1.48692393e+00, -4.90540743e+00, 2.90328717e+00,
          -2.23726583e+00, 3.10865021e+00, 2.50085044e+00,
          -7.63162673e-01, 1.00400531e+00, 7.84746170e-01,
          1.52863753e+00, 2.25531912e+00, 1.89965248e+00, 6.52068436e-01,
          -2.98353720e+00, -1.66916001e+00, 7.21728265e-01,
          2.23225570e+00, -3.62781256e-01, -1.11653708e-01,
          -7.38458812e-01, -3.66290689e-01, 1.14848268e+00,
          -1.32132101e+00, 1.94637731e-01, 5.30831441e-02,
          -3.54041547e-01, 1.87222159e+00, 1.69978812e-02,
          -3.35307904e-02, 8.75496686e-01, -2.30823562e-01,
          7.07539499e-01, 3.89618337e-01, -9.05765593e-01,
          -6.78664923e-01, -2.02073619e-01, -7.85010755e-01,
          -2.06994385e-01, -2.71417201e-01, 2.74633765e-02,
          -1.87066495e-01, 1.36341721e-01, 2.60967135e-01,
          6.83800504e-02, 7.76364565e-01, -7.09650099e-01,
          7.25452125e-01, 2.07635239e-01, 4.52502578e-01,
          -9.31614488e-02, 1.40892535e-01, -7.93084383e-01,
          5.91115475e-01, 1.62317991e-01, -5.94831467e-01,
          7.82812178e-01, -4.14874971e-01, -1.61225926e-02,
          3.11915964e-01, 1.04080485e-02, 3.21215779e-01, 1.60241854e+00,
          1.38986602e-01, -3.03611100e-01, -1.89010531e-01,
          5.61793506e-01, -1.26822114e-01, 2.41707817e-01,
          -8.27360973e-02, 9.04901981e-01, -5.44693530e-01,
          -6.42305851e-01, -2.64529645e-01, 3.23101014e-01,
          2.52265245e-01, -4.59263265e-01, 2.10348349e-02,
          7.59044141e-02, -5.71999431e-01, 2.08163559e-01,
          -1.95816725e-01, -1.66554928e-01, -4.73222494e-01,
          4.13835734e-01, -3.52768004e-01, -2.34033391e-01,
          -5.02648175e-01, -5.19182265e-01, 8.08674023e-02,
          -8.28506410e-01, -5.00328913e-02, -8.48656952e-01,
          -1.02284396e+00, -8.00995708e-01, -1.06353559e-01,
          -8.22056472e-01, -2.01811329e-01, 9.51652750e-02,
          5.68406045e-01, -2.32436165e-01 ]
      - [ -4.92940962e-01, -5.07418489e+00, 3.93264890e+00,
          -2.79267716e+00, 7.84608901e-01, 2.14272094e+00,
          -1.48154950e+00, 2.02475476e+00, 8.59900653e-01,
          5.61149478e-01, 2.69398379e+00, 2.73757696e+00,
          -4.44681853e-01, -2.59523582e+00, -1.13572884e+00,
          1.61557660e-01, 1.66232538e+00, -6.56045794e-01,
          5.01822054e-01, -1.50343645e+00, 4.83867645e-01,
          2.21039921e-01, -6.42433763e-01, -9.16991174e-01,
          -1.00332296e+00, 7.97738135e-01, 8.84959280e-01,
          4.29891825e-01, 6.45835325e-02, 8.67273808e-01,
          -4.64311510e-01, -8.34219933e-01, 1.47944659e-01,
          -7.68568397e-01, -8.57243657e-01, 3.79486442e-01,
          -1.02579141e+00, 5.72793603e-01, -1.27168745e-02,
          -1.25472486e-01, 8.92813429e-02, -4.52135503e-02,
          6.48531139e-01, -4.97051507e-01, 2.30748113e-02,
          9.27181542e-01, 8.27435851e-01, 2.11568072e-01, 9.13529217e-01,
          5.82631230e-01, -2.69583672e-01, -4.98900488e-02,
          2.54485309e-01, -3.02203268e-01, 1.98110521e-01,
          -4.24600989e-01, -2.14103475e-01, -2.57928716e-03,
          -1.73673987e-01, 5.64436674e-01, 3.04964520e-02,
          2.93391794e-01, 1.29724836e+00, 1.28289051e-02, 6.34814620e-01,
          -1.69648901e-01, -5.48590660e-01, 6.69291258e-01,
          5.87846875e-01, -2.93091267e-01, -4.76269424e-01,
          -1.66613832e-01, -4.61194247e-01, -4.03497577e-01,
          -2.22499192e-01, -3.12747031e-01, 2.31859416e-01,
          1.35256812e-01, -7.48998284e-01, -3.59749228e-01,
          -9.77493227e-02, 2.85969496e-01, 9.55363289e-02,
          -3.14257711e-01, -3.07864040e-01, -1.26539201e-01,
          2.18306556e-01, 5.31388998e-01, 4.68099713e-01, 1.12907343e-01,
          -3.03514719e-01, -5.70957720e-01, -2.98868924e-01,
          -4.02193844e-01, 1.38302982e-01, -5.32174885e-01,
          -4.11194205e-01, -1.88951567e-01, 1.68048561e-01,
          -5.91476500e-01 ]
      - [ -1.99978840e+00, -2.36510634e+00, 3.62794423e+00,
          -5.82773304e+00, 1.21056223e+00, 3.59978765e-01,
          -2.48819685e+00, 1.65642130e+00, 1.46117449e+00,
          7.08357275e-01, 2.39430761e+00, 1.00483656e+00,
          -1.73537225e-01, -1.26470971e+00, -6.13265634e-01,
          -6.81744516e-01, 1.31431842e+00, -1.60432267e+00,
          -8.50212932e-01, -1.47458732e+00, -1.11171210e+00,
          5.69256604e-01, -1.10749602e+00, 9.76012886e-01,
          4.22286332e-01, -7.40762413e-01, 8.12137783e-01,
          4.25846785e-01, 1.43035114e+00, -8.12323213e-01,
          -3.48101854e-01, 7.56535865e-03, -1.43398404e-01,
          1.68275967e-01, -1.12177086e+00, -3.92975301e-01,
          -1.02582371e+00, -1.22276030e-01, 4.72412348e-01,
          2.35245422e-01, 2.13694602e-01, -2.78850868e-02,
          2.13842988e-01, 6.58321023e-01, -3.05107832e-01,
          2.08647668e-01, 3.48559558e-01, -2.74693549e-01,
          -9.19151977e-02, -1.42401621e-01, -7.53537893e-01,
          2.38970831e-01, 9.55898464e-01, 3.13615412e-01,
          -3.58952284e-01, 1.13492715e+00, -7.46081710e-01,
          -1.03233524e-01, 4.08077806e-01, -1.47612086e-02,
          -3.94156784e-01, 5.13785839e-01, 6.35952234e-01,
          1.87125713e-01, -3.26375097e-01, -8.59794676e-01,
          -1.12136766e-01, 3.91305059e-01, 3.42391133e-02,
          -6.27197027e-01, 5.75625896e-01, 1.76861852e-01,
          -3.27351809e-01, -8.48857343e-01, 4.05834228e-01,
          -1.89185869e-02, -3.72854203e-01, -3.71555209e-01,
          -6.07134521e-01, 6.34419799e-01, 8.03318433e-03,
          -7.75482357e-02, 2.61769835e-02, 2.96557814e-01,
          4.93386984e-01, 2.86159426e-01, 5.64791337e-02, 2.17379570e-01,
          -2.55723715e-01, -9.91779193e-02, -1.59083784e-01,
          -3.20587188e-01, 2.84645349e-01, 5.06021008e-02,
          -1.75199494e-01, -1.59499660e-01, 3.90903085e-01,
          4.88880128e-01, -1.19929984e-01, 9.60481390e-02 ]
      - [ -2.20942998e+00, -2.69030213e+00, 3.58321095e+00,
          -6.18288279e+00, 1.01122439e+00, 1.13213338e-01,
          -2.25332642e+00, 1.50796318e+00, 1.80541730e+00,
          3.84752244e-01, 2.43153024e+00, 1.53492972e-01, 3.24115515e-01,
          -7.90026128e-01, -1.71915278e-01, 3.28986526e-01,
          1.32515776e+00, -1.58628368e+00, -3.94183397e-01,
          -1.22802854e+00, -1.71235430e+00, 4.87664133e-01,
          -7.45987117e-01, 7.61848509e-01, -1.32965902e-02,
          -1.10583401e+00, 5.20590663e-01, 1.05467260e+00,
          1.42383802e+00, -5.06281912e-01, -7.07757056e-01,
          6.04494691e-01, -2.24888325e-01, 1.90307692e-01,
          -3.92989576e-01, 6.80934936e-02, -6.06327713e-01,
          -7.29044452e-02, 8.11128795e-01, -2.88205266e-01,
          2.95551956e-01, -1.25601077e-02, 4.34258938e-01,
          2.34554857e-01, -2.66824722e-01, 1.23809963e-01,
          -8.13942477e-02, -6.57443941e-01, 5.39804138e-02,
          -5.44295132e-01, -5.28940201e-01, 2.88414061e-01,
          4.69113946e-01, 4.59570140e-01, 2.24842995e-01, 1.70855296e+00,
          -1.13815570e+00, -2.44800225e-01, 5.23894846e-01,
          -3.05970848e-01, -6.25492573e-01, 1.65950775e-01,
          2.74970025e-01, -2.16639191e-02, 2.52937406e-01,
          -9.98991787e-01, 3.98430318e-01, 3.26964021e-01,
          -7.54320472e-02, -4.26108629e-01, 5.57127774e-01,
          8.61420631e-02, -1.14900462e-01, -4.41638649e-01,
          9.60342646e-01, -1.38182789e-01, -8.27607810e-01,
          -2.45033920e-01, -2.32700691e-01, 7.99781606e-02,
          1.52836397e-01, 8.91093314e-02, -7.95285627e-02,
          2.03432083e-01, 7.31929660e-01, 1.52083769e-01, 1.14139028e-01,
          4.89342779e-01, -7.39529669e-01, -1.50006311e-02,
          -3.58272225e-01, -6.41441643e-02, 2.86604185e-02,
          -3.09796296e-02, -8.55918899e-02, 1.40449554e-01,
          4.22991544e-01, 2.76585460e-01, -2.86030591e-01,
          -5.39723188e-02 ]
      - [ -1.77413678e+00, 1.42081833e+00, 1.78221166e+00,
          -5.16952610e+00, -2.68328357e+00, 7.92258859e-01,
          -6.25624776e-01, 9.19802666e-01, 9.08770919e-01,
          7.59126484e-01, 2.41186547e+00, 3.74601960e-01,
          -6.21275663e-01, -7.36643076e-01, -1.47202158e+00,
          -1.38713443e+00, 1.33825552e+00, -1.03463793e+00,
          -1.39132607e+00, 6.87793434e-01, 5.39979339e-01,
          -1.47801197e+00, 1.73674917e+00, -2.68666339e+00,
          4.59267527e-01, 9.72774744e-01, 1.78189576e+00, 3.39373678e-01,
          3.94935340e-01, -2.91692436e-01, -2.20791727e-01,
          -9.00225163e-01, -4.96196970e-02, 8.66044238e-02,
          8.87563974e-02, -1.03666627e+00, -1.58767283e+00,
          1.55232024e+00, -4.44777489e-01, -3.89501035e-01,
          7.32436657e-01, -7.28674650e-01, -1.85784638e-01,
          -4.86827157e-02, -4.32171583e-01, -2.27741435e-01,
          1.51376355e+00, -1.28613412e-01, 4.97261465e-01,
          -3.45311701e-01, 5.38181067e-01, -1.15499921e-01,
          1.01255393e+00, 2.95650393e-01, 9.23642814e-02, 1.01292002e+00,
          1.88621712e+00, 9.59125221e-01, 6.92171633e-01,
          -1.57413960e-01, -1.66980147e-01, 8.35627317e-01,
          1.58907211e+00, 8.01940501e-01, 5.26454151e-01,
          -2.41604313e-01, 5.13673663e-01, -2.00862363e-01,
          1.13055460e-01, 8.75114262e-01, 7.99584210e-01,
          -1.05591154e+00, 3.62581819e-01, -8.15648377e-01,
          1.11558609e-01, -4.24194217e-01, 3.60223919e-01,
          -1.76481590e-01, -8.94413233e-01, 3.82872283e-01,
          4.02588785e-01, 4.64435935e-01, -3.95234704e-01,
          1.17712848e-01, -4.67878580e-01, -7.59159863e-01,
          -4.63362128e-01, 5.13393879e-01, 1.10140657e+00,
          -6.87161088e-01, 1.35196939e-01, 9.17017385e-02,
          -4.25374031e-01, -1.25688627e-01, 9.03296351e-01,
          -5.53823411e-01, 4.29586947e-01, 3.86884660e-01,
          -7.39799678e-01, 4.35648449e-02 ]
      - [ -3.18909144e+00, 2.28013825e+00, 4.04729462e+00,
          -3.69313598e+00, -1.65897071e+00, 1.20175076e+00,
          -1.22427332e+00, 5.76644897e-01, 1.45017934e+00,
          1.04856658e+00, 2.36078334e+00, 1.35451782e+00, 2.81125516e-01,
          -2.42588267e-01, -1.60543704e+00, -5.17062604e-01,
          1.19352913e+00, 6.12686127e-02, -2.10913205e+00,
          -7.25439191e-02, 2.70538002e-01, -6.75479993e-02,
          -4.32468742e-01, -3.37124377e-01, 1.12140231e-04,
          6.67797625e-01, 7.72138953e-01, 1.02768016e+00, 5.04483640e-01,
          -7.73267388e-01, 2.37302527e-01, 1.50931463e-01,
          -1.33455530e-01, -7.82978535e-01, 9.11727965e-01,
          -1.02916205e+00, -1.43593740e+00, 5.37871718e-01,
          1.59124106e-01, -9.13016140e-01, 3.86984311e-02,
          -8.40710521e-01, -6.25998139e-01, -2.46850476e-01,
          8.01974297e-01, 7.28738010e-02, -4.56161350e-01,
          6.37630939e-01, 2.23818570e-01, -4.56961572e-01,
          1.84090808e-01, -4.15828496e-01, 1.68847099e-01,
          6.68277323e-01, 8.10272932e-01, 1.05982983e+00, 1.13659430e+00,
          1.52207911e-01, 7.49005795e-01, 7.88590074e-01,
          -4.39243987e-02, -2.72026896e-01, 1.04729152e+00,
          -1.22738600e-01, 4.94076848e-01, -8.18733573e-01,
          2.77830839e-01, -7.86882043e-02, 3.30768585e-01,
          -9.56111625e-02, 5.01869731e-02, -1.26804948e-01,
          -5.16399801e-01, -2.32489556e-01, 7.33514130e-01,
          -1.10546732e-02, -4.06019360e-01, 2.86171615e-01,
          -8.72375250e-01, 2.37464756e-01, 6.79981768e-01,
          2.87220389e-01, -2.23545715e-01, 1.11641273e-01,
          5.61396062e-01, 6.87391758e-02, -5.79433262e-01,
          4.63012248e-01, 1.84233367e-01, -3.75346065e-01,
          -7.92507827e-01, 2.45713323e-01, -1.13066566e+00,
          1.08215079e-01, 1.89096823e-01, -2.24716663e-01,
          -5.24711490e-01, 3.33865881e-01, -6.28921032e-01,
          1.32581368e-01 ]
      - [ -3.38080120e+00, 2.03821242e-01, 1.93991208e+00,
          -6.72938490e+00, -1.06408656e+00, -1.23985243e+00,
          -9.76953685e-01, 6.94849849e-01, 1.11846495e+00,
          4.40954685e-01, 1.68541574e+00, -1.23385549e+00,
          -2.06330442e+00, -4.04580683e-01, -1.19345498e+00,
          1.25359583e+00, 1.49625167e-01, -1.19259179e+00,
          -4.05956991e-03, -1.28973186e+00, 2.67979562e-01,
          -2.42529392e-01, -7.62321502e-02, 1.14158976e+00,
          1.37486863e+00, -1.11792374e+00, -1.09645569e+00,
          1.07580805e+00, 1.32149613e+00, -1.01704752e+00,
          5.08014597e-02, 8.37311327e-01, -3.38527679e-01,
          5.91604263e-02, 3.10035855e-01, -1.00274667e-01,
          -4.64190722e-01, -1.13740928e-01, -8.08367133e-01,
          -6.91869199e-01, 6.38997376e-01, -1.42250270e-01,
          -2.39028245e-01, -5.25988519e-01, -2.52270192e-01,
          -3.03521246e-01, -3.50461543e-01, -1.10265160e+00,
          1.55180335e-01, 2.84373015e-01, 4.69462872e-02, 4.45738733e-01,
          -8.83014798e-01, -1.06185218e-02, 8.78046155e-01,
          3.32074165e-01, 1.22221820e-01, -8.02013874e-01,
          -6.54976606e-01, 1.14783689e-01, -3.27438712e-01,
          6.14777386e-01, -9.52079073e-02, 2.51372874e-01,
          -2.69402266e-01, 3.46206456e-01, -9.43586826e-02,
          -5.28509498e-01, 3.18666518e-01, -1.66708127e-01,
          4.72353287e-02, 9.95993540e-02, 2.09587380e-01, 4.59492713e-01,
          -2.60747463e-01, -5.01114428e-01, -4.53215063e-01,
          -2.67800570e-01, 6.38987899e-01, -2.29462728e-01,
          3.56906578e-02, -7.03420788e-02, -2.59101689e-02,
          3.35303724e-01, -2.80708313e-01, -7.41196573e-01,
          2.00237662e-01, 7.06531346e-01, -2.25164428e-01,
          1.99338019e-01, 8.49539280e-01, -4.63723630e-01,
          -5.60968332e-02, 3.87905449e-01, -5.29477596e-01,
          1.98046014e-01, -1.74683139e-01, -3.87986749e-01,
          5.41133642e-01, -4.07611698e-01 ]
      - [ -4.20780039e+00, 2.43857360e+00, 3.85923600e+00,
          -3.68230677e+00, -9.84445453e-01, 7.38201022e-01,
          -8.26917470e-01, -2.19194517e-01, 1.01122618e+00,
          1.36731863e+00, 1.29335964e+00, 7.61006713e-01, 1.02414179e+00,
          -6.56307697e-01, -2.92465544e+00, -6.03465773e-02,
          7.75384426e-01, -4.02182460e-01, -2.06667614e+00,
          -4.91198301e-01, 9.49377418e-02, 2.69179016e-01,
          2.82459289e-01, 2.94882387e-01, 4.02665466e-01,
          -1.70380428e-01, 4.26130444e-01, 8.93738568e-01,
          5.93573451e-01, -7.89322615e-01, 4.51448172e-01,
          7.73826838e-01, -9.49637413e-01, -8.39724064e-01,
          9.51814413e-01, -8.17763925e-01, 2.39013329e-01,
          3.45648497e-01, 6.92003742e-02, -7.73453951e-01,
          1.09348916e-01, -9.68322456e-02, -3.36235523e-01,
          -1.19103968e+00, 4.48691994e-01, 2.25395381e-01,
          -1.32766506e-02, 7.62948632e-01, -2.47632205e-01,
          -5.93013465e-01, 6.59226060e-01, 3.08996830e-02,
          -1.03009842e-01, 5.45148432e-01, -2.26281106e-01,
          5.07067323e-01, 1.23073387e+00, 1.41520932e-01, 7.51426816e-01,
          3.90580058e-01, -9.51350406e-02, -4.04144675e-01,
          1.22730696e+00, -2.42738247e-01, 5.23077548e-01,
          -2.01179728e-01, 1.05366039e+00, -5.81888676e-01,
          -3.11549664e-01, 4.68102396e-01, -8.70438516e-01,
          -2.93870598e-01, -3.26533586e-01, -4.78185594e-01,
          2.41349623e-01, -1.82610586e-01, -3.15974295e-01,
          2.01828554e-01, 2.06541181e-01, 1.98318183e-01, 1.51363373e-01,
          3.57455836e-04, 1.65611416e-01, -1.94681451e-01,
          4.96599704e-01, -4.29555804e-01, -6.14624321e-01,
          3.64500701e-01, -4.22180325e-01, -1.69077024e-01,
          -6.28581285e-01, 2.16837376e-01, 3.39859337e-01,
          4.96014476e-01, 6.26887023e-01, -3.30152065e-01,
          7.23896682e-01, -5.30066431e-01, -6.53348148e-01,
          2.15353623e-01 ]
      - [ -8.65244985e-01, -2.05601764e+00, 4.11023855e+00,
          -3.51083207e+00, 4.14464903e+00, -8.29238951e-01,
          -1.27196229e+00, 3.22654158e-01, 2.32575989e+00,
          3.74660015e+00, 1.95878887e+00, -3.54897708e-01,
          2.01142073e-01, -2.60056186e+00, -3.34513903e-01,
          6.93786561e-01, 1.67881802e-01, 1.38454869e-01, 4.93777126e-01,
          -1.07402813e+00, -3.20873380e-01, 2.01754856e+00,
          7.63440847e-01, 1.79868364e+00, 8.57357919e-01,
          -8.06834340e-01, 2.78950691e+00, 1.28987741e+00,
          1.13580227e+00, -8.30669850e-02, -2.53785700e-01,
          6.95158422e-01, 3.84013467e-02, -5.44634879e-01,
          -5.47765851e-01, 4.16383892e-03, -1.32204866e+00,
          2.10171849e-01, -1.78148732e-01, 2.48442948e-01,
          5.13197422e-01, -7.28282705e-02, -5.37069798e-01,
          -3.11891019e-01, 1.90815285e-01, 1.45548824e-02,
          1.13678503e+00, 1.08088441e-01, 3.64129633e-01,
          -1.06284924e-01, -7.08200812e-01, 6.82217300e-01,
          -6.94490910e-01, 1.33803621e-01, -1.86651364e-01,
          4.46476817e-01, 3.17100883e-01, 2.52647877e-01, 8.36607814e-01,
          3.31597686e-01, -4.70682055e-01, 1.67414415e+00,
          -1.07891135e-01, 2.67300338e-01, -3.23045224e-01,
          -5.26536107e-01, -2.66506284e-01, -5.45999408e-01,
          2.20133662e-01, 4.02167797e-01, 8.21939290e-01,
          -2.57130027e-01, 3.35774809e-01, -4.37880814e-01,
          -2.88328696e-02, 1.15147710e-01, -7.86545098e-01,
          -4.93249744e-01, 5.72480559e-01, 4.68958914e-01,
          3.29449981e-01, 3.31970215e-01, 7.97269307e-03,
          -9.40020978e-01, 2.18327567e-01, 1.68210104e-01,
          -2.16543347e-01, 7.25537464e-02, 2.06463054e-01,
          -1.69203833e-01, 6.48124874e-01, 3.59674841e-01,
          -3.69871967e-02, -1.48388714e-01, -4.19959664e-01,
          2.07390755e-01, 1.45812461e-03, 1.65929515e-02,
          -3.01167607e-01, 5.77058971e-01 ]
      - [ -4.20150375e+00, 2.00087953e+00, 8.67850959e-01,
          -5.95597219e+00, -2.37025332e+00, -6.94747865e-01,
          4.59037483e-01, -8.88207376e-01, 3.37659776e-01,
          -7.77772963e-01, 1.49761665e+00, -2.20239091e+00,
          -2.28959036e+00, 1.33983895e-01, -3.41670454e-01,
          8.98644567e-01, 7.81485856e-01, 1.35817453e-01, 3.03593367e-01,
          -2.75515705e-01, 5.68719864e-01, 3.33140999e-01,
          -6.22495124e-03, 1.01547778e+00, 8.11137855e-01,
          -7.40514815e-01, -6.84587777e-01, 4.48057115e-01,
          1.29352406e-01, -9.13829327e-01, -5.48925623e-02,
          6.42402470e-01, 3.53204399e-01, -5.82642615e-01,
          8.81823838e-01, 6.23699248e-01, -9.60762739e-01,
          7.09607482e-01, -7.29957998e-01, 6.18942320e-01,
          -5.59004247e-01, -8.47161651e-01, 4.95279342e-01,
          -2.59665489e-01, 1.13717429e-01, 3.06208611e-01,
          -6.96307838e-01, -9.44159031e-02, 2.39826247e-01,
          -9.97496963e-01, 7.72400573e-02, -5.82206786e-01,
          -7.97447562e-01, 1.85400620e-01, 7.05650002e-02,
          -5.30148037e-02, -3.91153425e-01, -1.14041877e+00,
          -9.92822275e-02, 2.84160584e-01, 9.63091969e-01,
          6.89046383e-02, 3.99061054e-01, -8.09017345e-02,
          1.72070742e-01, 1.59823790e-01, 2.31015772e-01,
          -8.02782103e-02, -9.81925894e-03, 3.69075328e-01,
          7.45322108e-02, -4.70004290e-01, -4.12523262e-02,
          4.96987075e-01, -4.41880643e-01, -9.13264751e-02,
          2.91459352e-01, 1.37286708e-01, 6.17996931e-01,
          -8.87439996e-02, -2.52439946e-01, 5.34407616e-01,
          -8.02645445e-01, 7.81765357e-02, 8.38731170e-01,
          1.76969454e-01, -3.73028755e-01, 2.26031736e-01,
          -4.41505492e-01, -1.32453665e-01, -2.87939012e-01,
          -4.50089335e-01, -7.12816298e-01, 5.15647113e-01,
          1.33150533e-01, 9.27085161e-01, -1.66958123e-01,
          -2.91878790e-01, -4.51007336e-01, -1.75899938e-02 ]
      - [ -4.49129391e+00, 3.79133368e+00, 2.05916166e+00,
          -3.60397220e+00, -3.40799117e+00, 1.08675182e+00,
          7.36210883e-01, -2.76028514e-01, 3.33211720e-02,
          -1.11407943e-01, 5.20499527e-01, -1.73687369e-01,
          -9.52534556e-01, 3.01112622e-01, -2.18903804e+00,
          -3.26380543e-02, 9.22573149e-01, -4.15748894e-01,
          -7.73914695e-01, 9.56575632e-01, -5.82860671e-02,
          8.30928147e-01, 4.37896281e-01, 1.28281295e+00, 8.95260274e-01,
          3.11126590e-01, 3.40988785e-01, 1.00457296e-01, 2.74348259e-01,
          -3.48636508e-02, -1.90137878e-01, 4.76198554e-01,
          -7.38720715e-01, -6.42132282e-01, 9.35240984e-01,
          -6.66517615e-01, -8.81147861e-01, 1.40509784e+00,
          -5.04226744e-01, -3.65627497e-01, 7.14202002e-02,
          -3.87546867e-01, 1.90258145e-01, -7.61819303e-01,
          -9.43247974e-02, -9.23962966e-02, 2.03659963e-02,
          -1.56847969e-01, -5.98582149e-01, -1.23245573e+00,
          4.82955635e-01, -2.36705974e-01, -7.38292873e-01,
          -6.45981371e-01, 6.36066914e-01, -6.89651549e-01,
          -7.20004380e-01, 5.20573974e-01, 6.08445764e-01,
          -1.31841809e-01, -2.06235200e-01, 6.30899519e-02,
          1.55824006e-01, -6.13299549e-01, -1.36924451e-02,
          -6.51829123e-01, 5.43742478e-01, -3.53710562e-01,
          -6.30208671e-01, 1.14722572e-01, 4.55371469e-01,
          -1.27789390e+00, -1.07899055e-01, -6.05254292e-01,
          5.76598406e-01, 4.36522812e-01, 4.26342338e-01, 3.36531587e-02,
          -2.94864595e-01, -2.24184483e-01, -2.81379968e-02,
          -2.06849441e-01, -5.74544430e-01, 6.97614789e-01,
          8.58855247e-02, -2.80271083e-01, -9.61165726e-02,
          3.85489196e-01, 4.44476277e-01, 2.50032812e-01, 3.27375643e-02,
          5.30760467e-01, -2.63103962e-01, 1.52908668e-01,
          3.05698812e-01, 5.02786517e-01, 2.36730337e-01,
          -2.78208554e-01, -5.40754795e-01, 8.40664625e-01 ]
      - [ -5.03671837e+00, 3.54240894e+00, 1.93729734e+00,
          -4.12953091e+00, -3.59009576e+00, 1.04718649e+00,
          1.43121406e-01, 7.42119551e-02, -6.47189677e-01,
          -5.56553185e-01, -6.77339733e-01, -3.89433131e-02,
          -1.83362365e+00, 6.13098145e-01, -2.14752555e+00,
          -2.98138589e-01, 1.20872051e-01, -7.50965655e-01,
          -6.82273626e-01, 1.23816276e+00, 1.11595619e+00,
          1.86247933e+00, 2.48342633e+00, -4.73622322e-01,
          -5.75198889e-01, 1.44959733e-01, 1.06478059e+00,
          3.75491202e-01, 6.74760342e-01, 3.04206073e-01, 6.25555396e-01,
          1.84408009e-01, -8.61439586e-01, -6.10437036e-01,
          3.04064572e-01, 1.78617880e-01, -9.16451961e-02,
          9.66870606e-01, -4.38564926e-01, -7.77119756e-01,
          3.89140576e-01, -3.93415362e-01, 2.37966418e-01,
          -6.79390848e-01, 1.77752718e-01, 3.06838095e-01,
          4.06136245e-01, -1.44295022e-01, 1.23508856e-01,
          -8.80543053e-01, 6.89574063e-01, 1.69494063e-01,
          -4.34066623e-01, 2.03426853e-01, 4.92558599e-01,
          -9.86749351e-01, 4.54464331e-02, 2.22127482e-01,
          -1.52221113e-01, -3.47625017e-01, 8.95162672e-02,
          4.75805253e-02, -3.75297308e-01, -2.21560165e-01,
          2.11027965e-01, -3.83760184e-01, -2.68533770e-02,
          -7.05328524e-01, -2.14536548e-01, 1.85183197e-01,
          2.49756068e-01, -2.86253244e-01, 6.53560400e-01,
          -1.06586032e-01, 4.04683203e-01, 3.16668689e-01,
          -1.82412758e-01, -2.80889541e-01, 1.55464739e-01,
          -2.41041631e-01, -3.46214920e-01, -3.01684380e-01,
          -1.67823266e-02, 8.44490707e-01, 2.84999669e-01,
          -2.74082482e-01, 6.66928053e-01, 5.41489482e-01,
          -2.33152628e-01, -3.54522884e-01, -1.44772921e-02,
          2.52351165e-02, -8.13379467e-01, 1.20060638e-01,
          6.18665934e-01, -5.63832335e-02, 9.83979851e-02,
          3.33230197e-02, -3.86847854e-01, 3.49686325e-01 ]
      - [ -2.72178483e+00, 9.63945210e-01, 1.70901799e+00,
          -6.61981058e+00, -2.02784157e+00, -8.89479280e-01,
          -1.65473506e-01, -3.02563995e-01, 1.59027863e+00,
          4.87256050e-01, 2.22297859e+00, -1.97756779e+00,
          -1.55523276e+00, -6.90378904e-01, -6.60751820e-01,
          1.25413430e+00, 3.87850940e-01, -1.05116487e+00,
          2.42075711e-01, -8.33896637e-01, -8.04988369e-02,
          -2.42875263e-01, -3.45042586e-01, 1.41379297e+00,
          1.51413107e+00, -1.13115883e+00, -4.59044337e-01,
          7.71232545e-01, 9.00043547e-01, -5.39502561e-01,
          1.60460681e-01, 7.69053519e-01, -1.34505918e-02,
          -5.77359796e-01, 2.31010392e-01, -5.10236382e-01,
          -1.07998526e+00, 1.18819334e-01, -5.55885792e-01,
          -3.27855259e-01, 3.11944246e-01, -1.73214793e-01,
          6.68167323e-02, -7.41306096e-02, -4.59025018e-02,
          -2.00909510e-01, -7.69550025e-01, -4.15915370e-01,
          8.48288983e-02, 4.33244109e-01, -1.19924575e-01,
          -2.89271802e-01, -9.42422390e-01, -8.71951357e-02,
          5.36186874e-01, 9.55932379e-01, -9.65004712e-02,
          -1.88304380e-01, -2.24359691e-01, -6.51983842e-02,
          -7.06899881e-01, 7.04225063e-01, 4.00718421e-01,
          -2.80277520e-01, 4.86577123e-01, 3.99742275e-01,
          3.37959141e-01, -8.13955814e-02, 2.48183683e-01,
          -4.14247215e-01, -9.07020569e-02, -1.28272353e-02,
          3.20937961e-01, -5.66435516e-01, -1.42690137e-01,
          2.07940657e-02, -1.26874104e-01, -5.21075845e-01,
          -8.06646198e-02, 2.48552233e-01, -3.25240582e-01,
          3.84628356e-01, -3.20595294e-01, 6.27208710e-01,
          -7.87474036e-01, -3.57264131e-01, 2.07212508e-01,
          6.67405367e-01, 3.65640484e-02, 2.21362397e-01, 7.14040637e-01,
          5.48651479e-02, -6.15170479e-01, 6.40916765e-01,
          -1.31051958e-01, 1.64931342e-01, -1.45793399e-02,
          -2.50407100e-01, 9.99855399e-02, -3.13083649e-01 ]
      - [ -4.48139286e+00, 2.86938024e+00, -1.66855425e-01,
          -4.78319836e+00, -2.38091898e+00, -3.40865672e-01,
          1.44425559e+00, -9.10386086e-01, -8.52476299e-01,
          -1.48190916e+00, 1.30214977e+00, -2.07338071e+00,
          -2.28297758e+00, 1.14621051e-01, 1.89140867e-02,
          2.27847118e-02, 1.56237710e+00, 7.31694937e-01,
          -1.27067551e-01, 3.35547119e-01, 4.02172416e-01,
          7.54571497e-01, -6.32188559e-01, 7.72159338e-01,
          8.48302603e-01, -1.92476273e-01, -3.40035379e-01,
          1.19096532e-01, -9.01989400e-01, -5.65653086e-01,
          2.81581163e-01, -3.34082365e-01, 6.05756283e-01,
          -2.13640824e-01, 2.88473397e-01, 5.64516008e-01,
          -7.32369840e-01, 7.95008600e-01, -6.65868938e-01,
          8.06295753e-01, -5.23509681e-01, -1.00345516e+00,
          4.51587230e-01, 7.64511432e-03, 5.04607975e-01, 3.43467444e-01,
          -1.22197822e-01, -5.60767472e-01, 4.82641280e-01,
          -7.02950299e-01, 1.18352756e-01, 2.99263120e-01,
          -9.03866172e-01, 5.24110675e-01, -3.77444386e-01,
          -1.24997154e-01, -5.85945785e-01, -8.43701184e-01,
          4.43771869e-01, 2.18646631e-01, 6.67116106e-01,
          -7.65358031e-01, -1.28300088e-02, -5.81635125e-02,
          -2.57018179e-01, -2.71275342e-01, -9.86887276e-01,
          -6.79801345e-01, -6.05793595e-01, -4.24873173e-01,
          2.46949166e-01, -5.85759878e-01, -9.61101830e-01,
          4.48606342e-01, -2.15231135e-01, 1.20874062e-01,
          2.85391152e-01, 4.51772004e-01, -2.41156742e-01,
          -5.88978112e-01, 2.41516367e-01, 4.30879891e-01,
          -2.27553532e-01, 1.27409369e-01, 7.66127944e-01,
          4.17020708e-01, -8.92358571e-02, -2.00760946e-01,
          -8.54937807e-02, 1.54605195e-01, 2.01502815e-01,
          -2.08070382e-01, -1.56683847e-02, 3.00770581e-01,
          -6.93890750e-01, 2.97530800e-01, 2.11649016e-01,
          8.40667844e-01, 8.90042633e-02, -4.47765857e-01 ]
      - [ -4.05683899e+00, 3.88197923e+00, -7.38983601e-02,
          -3.67991352e+00, -2.26465821e+00, -3.51857115e-03,
          2.09545445e+00, -6.74067616e-01, -8.34703326e-01,
          -4.65927601e-01, 1.72812510e+00, -1.28627110e+00,
          -1.56157029e+00, -6.49636090e-01, 8.51738572e-01,
          -7.77975261e-01, 1.18768167e+00, 6.54352665e-01,
          -5.60765862e-01, 3.20038855e-01, 3.32457483e-01,
          4.26630110e-01, -1.69088840e+00, 1.90467334e+00,
          1.46237302e+00, 1.76472619e-01, 5.50829530e-01, 2.70588130e-01,
          -3.80485542e-02, -1.29856586e+00, 1.45932853e+00,
          6.87900841e-01, 7.70067036e-01, 1.44659445e-01, 4.64840502e-01,
          -8.57556462e-02, -1.17569953e-01, 1.24565750e-01,
          1.62919760e-01, 4.61930409e-02, -1.92052141e-01,
          -6.13083184e-01, -3.55712354e-01, -1.48840606e-01,
          3.32017720e-01, 4.97482747e-01, 1.02866985e-01,
          -2.47185379e-01, 8.21759522e-01, -1.39995560e-01,
          -2.70084739e-02, 1.08234131e+00, 9.37146470e-02,
          4.81758177e-01, 1.66249171e-01, -1.76725134e-01,
          1.00256696e-01, -4.77931917e-01, -1.47504481e-02,
          1.70778766e-01, -8.65892768e-01, -5.30615270e-01,
          2.13292152e-01, -9.46018398e-02, -3.35341871e-01,
          -3.97811532e-02, -3.87768120e-01, -8.49886775e-01,
          5.51660359e-02, -6.76789880e-01, -2.18539000e-01,
          4.65567052e-01, -4.22031656e-02, -5.48357852e-02,
          5.51841676e-01, 7.94207975e-02, -2.03996763e-01,
          -1.64899841e-01, 1.63153216e-01, -1.98832378e-02,
          -1.19230682e-02, -7.04658553e-02, -2.64810145e-01,
          6.15807354e-01, 9.22547653e-02, 4.04689722e-02,
          -4.65538710e-01, 5.45399129e-01, -2.58863449e-01,
          3.55295509e-01, 8.09252560e-01, -2.13375211e-01,
          -1.60577640e-01, 4.10047561e-01, -4.18283790e-03,
          -3.21119845e-01, 2.07490921e-01, -8.37371796e-02,
          1.99399725e-01, 2.93003172e-01 ]
      - [ -4.45889235e+00, 4.49966097e+00, 7.85060942e-01,
          -1.25945628e-01, -3.11281323e+00, 2.15056872e+00,
          2.65485525e+00, -1.10585093e+00, -6.40697300e-01,
          3.60014498e-01, 1.26979375e+00, -2.39692882e-01,
          3.97465527e-01, -5.93332611e-02, -8.75031888e-01,
          2.67859638e-01, 3.58901709e-01, 1.45178378e+00,
          -9.55184162e-01, 1.29467845e+00, -7.65857220e-01,
          7.63859808e-01, -6.74583375e-01, 1.67505574e+00,
          4.35974896e-02, 1.02046347e+00, 1.13359690e-01, 3.72404724e-01,
          1.59530789e-01, -3.43910933e-01, -3.56954455e-01,
          5.99036574e-01, -9.84646499e-01, 5.86064279e-01,
          6.34817928e-02, -8.03663015e-01, 3.08710426e-01,
